nep4   2 O Hf
cutoff 6.0 6.0
n_max  4 4
basis_size 12 12
l_max  4 2 1
ANN    100 0
-2.0675538032668355
1.148509518739207
0.15251478151425016
-0.7160746457631323
0.8004632992847115
-2.100085259863601
-1.7331775827653828
0.37022126358845237
2.1446738578692877
1.282442563304526
-1.3556911832912066
0.3889420674175882
-0.8021965815616598
0.2922172750853644
0.8285063361137233
-0.7256039184563146
-0.49386000153850945
-1.3992267715724278
-0.6430928981358219
0.15646018881411206
-0.056199514862252345
-0.6641428083409915
0.8756056749884344
0.2571647299374913
-1.815766224021387
-1.0633013651672294
0.3149831345154904
0.47941684511752636
0.3534432965672348
-0.8773037944412756
-0.6987422500404284
0.07788424648351118
0.05591088539355897
0.1685154073068663
1.5508313687857604
-0.42675533004232113
0.032862516648091776
-0.9478516567738683
-0.4816221299108209
-0.021602020370395682
0.3599186594933969
-0.39510781414721297
-0.8314066529911333
-2.9984731172451182
-2.3234229908850725
0.18796824217403807
-1.5799850682399454
0.5842313131602007
-0.2704197241336629
1.0607368767986975
-3.064375789715721
3.6269731971497383
-1.404893555237911
0.0779218184265122
1.7664326720439452
0.5885535389387763
-0.6596505809929731
-3.051115380360476
-0.3690050144356579
4.784274771688948
0.5986740093939541
-2.7626638116011137
1.2458368412584355
0.701150389386891
0.8525113053572959
-0.8723263767336196
-0.13478790085219491
1.083966686277174
0.5191956390082534
0.6878304096844947
-0.06706835222975484
1.037516141896377
-0.10364145104974219
-0.42767801886544643
0.8749744754552466
0.45432147639129605
-0.16998247747624362
-1.85490576727564
-0.7825104354907766
-1.3438346609886975
-0.1433269319921376
-0.24316167407260666
0.76909094318755
0.4835702790767064
1.1630076033356256
0.8268726676235194
-0.3857548589619369
0.12320855206542836
-0.22690842245133871
0.011032845125673532
0.8160623385784413
0.934367931606691
0.1540422508166476
-0.8841704373033143
0.02820015419035783
-0.476726888714067
0.4402579512471616
-0.5018881806801968
0.3933556376848872
-0.7543063483926928
0.0300529904695718
-0.3304471870722149
0.13113104936681214
0.4844628113167674
-0.03526070015610451
-0.8495556610675284
-0.576288017290682
1.6459994299181409
-0.038433847742380504
-0.7079651318693287
-0.3951312750049337
-0.8948020278069843
-2.5979262468549496
1.0580202516522264
-0.6647961302759481
-0.7492719843368308
-0.17255153192716274
0.27907138622159156
-0.4803212432101908
1.4892866935116196
0.57130104184616
-2.5113282294445805
0.3662615261259544
1.2680610472796858
-1.1326499688209006
-2.0593973970259656
2.7509461855718436
-0.18797235570491885
0.7864657697734081
0.722531200136521
0.42897718830512865
0.05708803481333982
-1.3013997426873958
0.26770914638030807
0.1392360978334341
0.37702629369980817
1.6682752173996462
2.4189495063945428
2.125213243765311
-2.279338921119763
-2.3086283471174815
-0.9928778118480692
1.8158733136631215
-0.049143108583297374
-0.05803195316990595
0.5176767868182739
-1.9579308977200702
-0.722103171021724
1.317461508846765
-0.4075186750642445
0.7581819139499458
0.5824163419469321
-0.3474493237675708
-0.43946148247727906
0.16003706897820177
-0.20454973352436287
-0.8109172802317453
0.7725590567778519
-1.7583480273436232
-0.504035290204638
1.5947637968469337
-0.9965726044910956
-0.7237055695188878
-0.7722600593619199
1.085602892055191
-0.09767290782105714
0.08210010723794987
-0.5260343650232794
-0.11685352828566206
0.7247261945777012
-1.6235426428982151
3.1911549714333516
-1.0209208672130328
-3.884415039891433
-1.1261194287922258
-1.2856759684598014
-1.2137380823973343
2.519525709498601
1.8521865940799163
-0.3952214726568591
-0.7970943119496985
-1.0413271436516331
1.4137031367911943
2.3499439124851738
-1.8711098366829764
-0.6593441156514178
-0.24186426407605038
-0.8007794638222899
-0.6814219655150032
0.8660813891468249
2.39495203123972
0.6752122193111298
-0.43099097458527813
1.4179972213509033
0.9696673520488952
-0.851445627816553
-2.5672471526288065
-0.480572216644549
-1.452923474100378
0.5999234261074062
-1.487042042480381
-0.9636180545896631
-0.5964153905331676
2.0290230901506248
0.8111768171204761
0.9899678271271855
0.32944814810472745
-1.1590927843746104
0.057699560494309604
0.8086944969935324
-0.6660306837460499
-2.5189028484605447
0.44106168482488306
0.687338899137912
1.2316960162541797
-1.3091970646893942
1.0942008008138164
0.27111390312956385
0.5127352106087272
1.5083488130650282
0.5803939328905623
-0.15073497945845654
1.3801814805151769
-1.087410652118521
1.0817179262216552
-1.0162476147378476
-1.7671642767932905
1.9689848513252817
0.5594066466935536
1.6208156949568127
0.1812735740365371
0.3203818726958721
0.5623334728512003
1.4576074219438766
0.8582573739665786
-0.6111735733876044
-0.41388959951204
-0.0002894735347811015
-1.2849539433777144
0.5344721651561657
-0.37795529923627524
0.12127016227702041
-1.2363516940360537
-0.6777236560432395
-0.45418060084553324
-1.8935417888068242
0.39779056983887384
-0.39165147146775775
-0.6507371956471142
-1.0781365846731028
-1.521258913480244
0.5813150932609565
0.6208876319627777
-0.7802766498502265
0.3710420101815254
0.08728020826858962
-1.2477898510003342
0.019731512615689794
-0.10789080024660931
-0.48739395724951184
0.28243478910844083
1.3796432723662226
0.5247727612400986
-0.03397626444593684
-0.6578768656885617
-0.4709685003510543
-0.2248101937882624
-0.17196308008168007
-1.226506468854998
-0.2171575166973342
-1.0505942002938045
-0.259893899611407
-0.0070664940142189225
-0.48994161973434336
-0.2595636518164672
-0.0357746517821033
-0.3236413681403843
0.05721288036300089
-0.3103868139799675
0.47836151537805893
-1.3133265925633297
-1.0337150629325818
0.6386365972554882
0.474183419044248
0.8894801705052591
-1.0813660084088723
-1.0587048640665482
5.385947891934758
-0.350140631397948
1.0144438763165438
-0.7228834162100458
-1.1126249934817474
3.0471998449135045
-3.1854418830061677
1.0139301359013673
-1.1062868303746787
0.23522796695520945
0.7162018526782944
-4.710179376360664
1.4146519396126376
0.6845571357626516
2.5644833923539703
-2.0300389497388447
2.511386605015713
0.8630799601677359
-2.3668064660343
-0.3879332683743669
-1.572604841713475
-0.7270883442214457
-1.303279408245978
-0.7982640887826299
0.09365337309270536
0.8378236678727621
1.4500394609975162
-1.9948777601105274
1.0802439362179623
0.8200079076737428
-0.14573069544625217
-0.2455967851484622
1.4938375436642486
-0.8081438496205146
0.5237857316499971
0.7960824041098441
-1.1050533029623966
0.27769288901803596
-0.11965444570249782
-0.6960581056610166
0.20801419976603908
-0.617591481850768
0.2441579003655058
0.6938690629668097
-0.9818762447856548
-0.7583697677893421
0.4485008491608783
1.3202581324956342
-0.3152389073172165
1.6480041141163415
-1.4824565963671548
0.3129380828457319
0.10408271480662186
-0.8456998048977052
0.4428532615766821
-0.7445139305356121
0.5432557630293239
-0.6192807301559269
1.8179890891971568
1.1220965988518572
-3.0222892982126615
-1.9122527496228072
-0.2477447039582747
0.029022600345186368
-0.038760931265556964
-0.28211553178875337
-1.046418347996352
0.7742654642238694
-0.23491410708510974
-1.2722861734543667
-0.6247146734030071
-1.727845702309861
-1.263818694541118
0.007022466720187047
-2.387205605927411
0.998598469688071
-0.8374504390866082
0.14435525238111163
-0.231380312269046
0.9152125318822187
0.6418254281802545
1.206763856759718
-1.7558620490093206
0.9013143696438601
0.1872246569274946
-2.674851381106856
-2.8906979820584957
-0.33197787901160664
-2.7005592383491788
-1.3880601718790433
-1.0715518650594824
1.0350820116535138
-0.4257984108940285
0.1864705338249391
0.10013657379052027
0.26616253815067065
0.044955836452315504
1.09020224627717
-0.10571891724491993
4.922087352461814
-0.060093062174222674
-0.6446692978142239
-1.1164073697783525
0.13040237860806397
1.3023275510172725
0.987045980149246
1.0222065906348472
0.09000223220098794
-0.6098794498580401
0.4102371796961196
1.9280814118100205
0.2972507402864156
0.004834352387763025
-0.19917989921390095
4.621250282189466
2.423013295512854
-0.1914150721706339
1.2721190132581814
0.18033296951578087
1.7077119359639534
-0.7081019891279977
2.560681103631579
1.3463736756359095
-0.12776416428139262
-2.44345963266342
-1.4661208564726014
-0.2551725684292683
-2.039323761515822
-0.020333216000806422
0.4432550331952784
0.8912940243812383
0.0788648891567485
-0.5532798597510609
1.0599424119043397
-0.16852728042643483
-1.6385054871261384
0.010337278286973122
-0.6196705541843628
-0.517151150957614
-0.29707277737047216
-0.64629786180782
-0.5091995226065578
0.10638326171481922
-0.4047009184218061
0.6225468451018554
0.7277317806290275
-1.527612706520673
-0.43631768548034916
1.2402771000301118
0.27162144374405717
-1.5149584634506739
-0.4224432859734743
-1.3085272091609148
1.5342824049617478
-0.014265042812433877
-0.6302357108830835
-1.1252813449254984
-4.111085230208448
-1.2879336701362085
-0.5201342172608164
1.34046049029193
0.8401819784160252
0.41253622125844536
0.9832208111272353
-1.1348648875914507
0.32522496038070636
-0.41671189142344567
1.3682025904782582
0.24410109165633564
2.9707432514972414
1.3830257795534833
-1.8467868599128587
-0.6768658661910645
0.5448525458355887
-0.24732043745080187
-1.7120583130481362
-0.8545648575042138
-0.2807617923072379
2.082797349802536
-0.419914609328845
-0.6009326017147216
1.4667871389897078
1.2610901546514623
0.017745816840872362
0.18505741656839733
1.6990100510815165
0.7113849548989428
0.7527198821863016
-1.0404051913521046
-0.954764199267436
-0.08067282915713311
0.2748863722730864
0.8454607965082861
-0.18239188286374622
0.13685758378471802
-0.43192210342917947
1.385230254165242
-0.968218149418001
0.4651315403886712
-0.3890832786926016
-0.3194558366750643
-0.07733105040054189
-0.4293452373233315
-0.3278245949559037
-0.6420117644628637
-0.5568996360938738
0.3721372373419114
-0.41858836137474853
-0.04247648037034587
2.6931486268014266
0.44937735978046356
0.49103053895534365
0.923825616810851
-0.7591017914531566
-0.7205884734969803
0.6054908616013038
-2.0699612179967457
-0.1600811342599704
-0.9556642804909147
0.5966619187280314
-0.9420455015396247
0.023499757655171122
-0.2544400461322949
-0.8496911167619903
-0.2760501726532993
1.09583067586437
1.8487530908341723
-0.9293551380217429
-1.1011358920333825
0.8487100022074932
-0.5008037691015234
-1.2976343258349006
-0.8474046515001977
-1.0437832419261828
0.5641177972862772
-1.464757030170925
-1.7248355701366194
2.0939744873932598
-0.2542414331845319
-0.2825359304384276
-0.5199470811448137
-1.4605661258383296
3.4077793537780687
-0.27202169254765884
-1.2137933787050397
1.3681861852597723
0.0013823337243206429
0.45176017053734735
-0.8361043472894922
0.7526663192317771
-0.8510153987984421
-0.4605888095149719
-0.2879517753020752
-1.8228366812442756
-0.08807230607004886
1.7445883856783628
-0.20273344864274245
-0.6027003963445792
0.06261147785098847
1.0284574981063888
-1.1886758502960038
-0.5651579548059525
-3.3749289287255695
2.106787122149505
-0.336348944292835
-0.02100972691928851
0.03135396459851909
2.227304137061575
0.12346618742897333
-1.0237712621302302
1.3455780113970301
-0.22249979463845876
-1.535660802891562
-0.5374933611137305
-0.22880031329156955
-1.8475553210688627
-0.04661339728528248
0.381094840942924
1.8749480146680388
2.9381391105455967
-0.07136537346416848
0.6616592944204747
-0.2009352920389365
0.12397228847113226
0.9858442278009684
-1.2988569324901609
0.40098942942525667
0.982347762716845
1.3892195376644723
-0.20788268462701695
-1.2357960466316107
-0.5805363331454259
0.7499092759123549
0.2734577430514121
-0.7201043070823954
0.6630987533650128
0.6134554122137813
0.35125105044678706
-0.11992654732410724
0.12037685350142102
1.338946942661704
-0.29647919390978916
0.830353287273926
0.1718827884581216
0.6451281984265637
-0.24997000310002832
-0.23544027859037303
-0.08302084400942411
0.21984794779827246
1.6175742622634917
-0.28891866760477397
-0.5851598237797985
0.08239167188876778
-0.48397379164749715
-0.8793966744284671
2.623612707462515
0.5172097620674074
-0.14049154913384576
1.0093049697139245
0.06134636470916261
0.9806481242618242
-0.34611636351504893
1.2325715396420645
-0.8935261984353422
0.016640069591232674
1.0645290277941153
-0.328630870199805
0.5577880778527862
0.6403413125119991
-1.2816864227677032
1.3349847463940334
0.47585043628809476
5.645006534575802
1.6666092332418192
0.43789446940020177
-0.6873269265488934
0.11941990266985969
0.8901764367117427
-0.06507924755934971
1.0410811938821065
-4.218610970668645
0.7280564930678174
-0.7192079995340679
-2.1819053669767894
-1.0388883760953749
-0.7597395174739728
1.2391287704465759
-0.9582840478622846
-1.055042394025979
1.4862804836692491
-1.7172183113546422
-0.3671753252196944
0.6428672321357205
0.11151490640944631
-1.9156479010467462
0.2955482192409893
0.35428140002017555
-0.8929630869976652
-0.04376195121502483
1.5463713475465628
-0.4045696333706701
-1.7298150227734428
-5.406352778742147
0.6160763371430432
-3.2091649429350877
0.5080012969840909
0.16987627423573265
-0.7411812423265745
-0.3153768706042369
-1.7145833614118393
-0.6442092889203576
-0.16739512499167497
0.15737008423132615
-0.4142820235812769
0.6061003583157211
0.3447992044039943
1.690465266992426
2.3010205881983268
1.7436121296200948
-1.524945569169564
-2.369650675485881
0.19896650010235759
-0.7936746624126383
-1.0321250169441194
-1.8555985783136912
2.686043105092569
-2.805582786894453
0.28648587100277717
-0.12313068438388548
0.32144624360377644
-1.0306632279873549
-0.7585921433337804
1.775977730324176
-3.466065195289128
-1.1065781717514145
1.671433321794452
-3.9797879212878104
-0.315802124579681
-2.967021005889974
2.412964389984936
1.1379661988736174
1.8029868107218552
3.6657635606118033
2.42181494241771
-0.10668665993352142
0.992849149431668
0.05786788647004499
-1.2916630468731751
0.7469566508568465
0.43340548557322656
-0.03435686216729848
0.25332538873344024
1.4678991904114225
-1.489263099379926
-1.719387450125456
2.8560243599766215
-0.41184188758957035
0.5396149907912685
-0.40687017552272786
0.4304846154149317
-0.7199258200959023
-2.626499172117458
1.1299466653579586
-1.0152411126446192
0.7071409768917015
1.0436826351068298
-3.96858902384756
0.17720806349227797
-0.2268817604662277
-0.17402267900224347
1.1397336904606186
-1.3001477390356395
-1.0930974294207065
-1.0002215682855475
0.8673580950018815
2.716536623536961
-0.2848498382503397
1.7999907356400386
0.5834626658304506
0.4054597344257633
1.3408710271971767
-0.3435653432015829
0.5010770638038566
0.19376736791615448
1.448812507702039
2.5904181585286348
1.3132199409709846
-0.18077879069049027
-0.731678536203556
1.9532675358352622
-0.43315446284699327
-0.5209450668065477
1.017244291008103
0.4208648859565932
-1.0399256471754201
3.2888403959489154
-2.8263656900901863
-1.0636788488242097
-0.11515814205756265
-1.2415899533558334
0.18033158971889646
-0.8845373283585015
0.7918893639218071
0.28784110135436025
0.5003491766889694
0.16594060507576208
1.9659321446471258
-1.2197343627041803
-1.4002376780742103
1.4166285974139485
-1.6916642592340272
0.6137458550164624
-1.5441756928934984
1.0651895682469195
-1.7710128398924163
0.2746198159963017
0.14619780330314816
0.7171343085577321
2.3396945201642825
-1.1184829435759565
-0.40228335491767464
-1.1583353351142198
-0.4462639913392516
-0.15569682581035665
-0.3980957104222014
2.3206636769479503
0.2653575150261017
-1.9481610359457868
-1.0812731505433348
0.5862450986431919
1.4349222173269465
2.013338321139015
2.329102348472523
-0.4841332610801415
0.21904159107011978
0.4187678666351608
0.33645607992950183
0.8231509665953359
1.4684854515109718
0.5065674234970189
0.23955285467384443
0.14450681093354123
-0.06934302606316967
-0.3892043891893651
-0.19856815956312854
0.28689858726433753
1.1631622146998943
0.8011571439822531
-1.1675452028255913
0.6669086777073145
-1.5515826040193113
-1.2028198940313903
-1.4886020164520075
-0.06870191328496188
0.6452124939793432
-0.46664195242357365
-0.32640953639365144
0.4420594192174008
-2.0871012743883393
0.3105929972663837
1.644516735557418
-1.1681847832334593
0.26778864795128776
1.060098882914208
1.1437664295215655
0.32043703460067935
0.884014052463102
-0.13266464103100284
0.6171479302620698
-0.16397674479023064
-1.0102166912214643
0.7063756526764887
-0.9434279952755592
-0.4849182766926427
-1.0861157059548001
1.195572083293211
1.3733079824543954
-1.7245373336305112
-0.481416553517485
-4.208300287291168
1.2422208140970814
0.651239936843939
-0.938093986299975
0.9063334597250853
1.645576966493944
-1.9716812291650945
0.36503423244360583
-1.4776059303417468
0.9647492402233087
0.9835937581909905
-1.324907401539712
-1.1093620956766352
-0.4241977840652589
-0.25916900765428946
1.6855989341650541
0.7723768201365068
0.04220625480650449
-1.585154679634689
0.6248103608077572
-1.9337391125147763
2.899592351835878
0.32243907795429533
-2.1188961553171812
0.11568373121705475
-0.12708482461418913
-1.6405970787806923
0.8486154172013879
-0.04055898304655276
0.025375342986514046
2.2060082470528726
-1.8410084622586298
-0.02811844480822745
-0.11023234545281153
0.8028851587893093
-0.24923269512018323
-1.0194286235919132
0.9920235270674866
1.0172066015349666
-0.24347711275443604
-2.19872793365335
1.8350438179067474
0.654657121873469
1.6471348722253625
-0.872328570847803
-1.217882502223335
-3.982342584999486
-1.3249067972019348
1.8492390057347046
-0.1932452493831643
-1.1290965138042108
-0.1244495024657239
-0.45816054749689267
-0.3769929472845322
0.32357139733161466
1.2534074354309037
-0.25883875117897154
-0.3963452382619009
-0.10650389476530557
0.7782512686011356
0.5002347846851339
1.1995777706207233
0.1916344750403377
-0.45403300191135015
-1.0478408558174506
0.9066127268313514
1.0035590808522088
0.30894404613150334
0.596469994302252
-1.292250707638178
0.1118721169243169
-0.7241751777071775
-0.506246808079477
-0.22035707042042785
0.43372382279766025
-0.6706927067156412
0.8648405987673679
-0.03882656441935453
-0.7055716427942927
-0.17746868108443747
0.005258774622141364
-0.018590384376746732
-0.01654145647074901
-0.03433018769843363
0.4133081981069304
-0.6412319918728128
0.4753361440711327
0.3582203095739298
0.09553983556223686
-0.11325568134748616
1.5645169065533224
1.0599115989603314
-1.4568517977466395
-0.469925355469341
0.506565604430907
-0.9136851823857579
1.51636714229786
-0.49358453796052076
1.311187178914621
0.9753632196997111
1.9078417512179426
-0.25932164043195094
1.2730209080890353
1.5532455513888614
1.9090793317046282
0.7102507816468043
-1.0771081487931244
-0.45751555858946236
-0.3031367393731065
0.4264825035464711
0.19786404860331527
-0.9936794456826894
0.8237649976946217
0.8824657049144742
-1.0105353981948115
0.8690452839947016
1.3475095757155102
0.5492781058229252
0.5382714378885367
1.833121068569597
-1.2856093533920794
-3.353671386252002
0.16622556977953654
-0.16765930550551744
-1.1299464448158172
0.3348604980614381
2.0092571393453147
1.7487623919847755
0.827912418311995
1.1150611320393924
0.03117871899240981
0.000961756460523989
0.8276654033106635
-0.07493622845248143
-0.12345958708718163
-1.3183181618455229
-0.33444000905214266
-0.8698596348065624
-2.3290697485455625
2.781265835224168
0.3606285965272186
-3.883691337125737
-1.8394358961299766
4.074725231860568
0.8217747656177651
0.546733051506611
-1.0108284194061234
0.12237283443307956
-1.2134503804192251
-1.0480366678325814
-1.1107790902912797
-0.9945995480536404
1.1471329116162066
0.9000924378044438
-0.8891597722548436
-2.1190370107809864
1.780036266513581
-0.0900587656184753
1.4304609648853184
-0.2222837432644241
-1.040137340638665
2.2655666231872758
-1.7996825115905817
0.2877108038394465
-0.6341763633975038
-0.32496552690593744
0.024849389079297957
0.45897715182525944
0.09993407171174774
-1.594786171906303
-0.791831757152385
1.9037635516592861
-1.6610046214667478
-2.058108550666044
-3.9838591532237335
1.7281223685700275
2.018058526331192
0.9786127650156652
4.9566625334360905
-1.365580850608989
-1.0371657414433926
0.6632830235697
-0.03717629657955465
-2.3702715980447513
-0.19132040249388443
0.2049516452283369
3.5333755750634546
0.3476824070497808
1.047359233174112
0.8392855427641713
-0.15117078784035348
1.1201381946217144
-0.029249375670300153
0.0765120157907227
1.619908847351347
-0.2363041512894484
-1.2580596977019236
1.0029566422882905
-0.4683813307815139
-0.03957920878704402
0.2003731935185538
-0.004102879042243018
0.8855480678043449
0.31250644214794626
-0.46940781954865135
-0.9841023484761763
1.5171663298466576
0.5126178533608747
0.09056602197891846
-0.1958176029784674
-0.27048146869759665
0.4057012654319804
-0.18949015314938097
-0.397960785545768
-1.9393200141232219
0.0037382833625572965
-1.4375600647464766
-0.9999989913627512
0.7266773783831926
-1.62821810072229
0.8947994695222393
0.20170508711800156
0.20113964724902325
0.8722300890407856
-0.48141685984285504
-0.30859501830314146
-0.45106184177838893
0.9650908982244004
-3.02043127361029
0.24042200595702343
-1.439129801933987
-1.034940861933806
0.6301220667942337
-1.5542116336021412
1.0040086802545063
-0.06487686169840379
0.6518482135122553
0.9072173052349193
-0.07606579668720828
0.319994310532899
-0.2713613551852189
2.418412202347804
0.7236146464535749
-1.8833431034087333
-0.7035230574576972
-1.1710260655564348
-1.5922078380486735
-1.5522806136128935
-0.08899518931291758
-2.223131788779679
-0.856772336972128
-0.13758753859200967
3.0182815528433022
1.1796408954703566
0.6247053955804245
-1.038211251824442
0.7426592586431024
1.2236700561801765
0.09878641863118197
1.1239195200190772
1.1741881172058983
2.84981960233567
1.2632284848550261
-3.297840490198571
-1.899774331212155
0.17572107611412663
0.174830640344724
1.3685687148679664
1.4662366659539792
-0.4472817877290329
-0.1985818483285782
1.0893544620221607
0.06371388112793606
1.3627570182903332
1.61736948173507
-0.9570840871313964
0.6774728679016028
-2.8277697494074503
-2.570946424589195
1.5223734469453543
0.9502412677935094
-2.508346548983724
-0.8685179840921115
-0.433942854496513
-0.11588959079373148
1.0061445317955664
-1.5210824052718956
0.018940920622118676
1.124132965228334
2.1005314372025268
-1.5231863669588914
1.5592191745087138
0.17467641301997477
0.6572233247782543
-1.012314202257923
1.0498354162540906
1.9144603478404232
-0.22893270457427298
2.3003899969241783
-0.03843780567718804
-0.8244850043137557
-0.8013586243523055
-1.609712756112858
0.033164604022139076
-0.028271832849685718
-0.15727580108572115
-0.41963544100801703
-1.1771333213886703
-1.7092987239753241
0.9213014015061479
-0.05846239214497122
-0.44148800844341823
-4.997117104447561
-0.3476889016332873
1.485800094646136
3.233325786022041
-0.1697849607224724
-0.30572107781470775
1.4094838368993545
0.17909124215848604
1.6424876819487046
-1.1626042033206376
0.2721521192669266
0.7375360624319112
-3.558747202869864
0.94647480012423
1.2602375823108858
2.2668682305981935
2.3096995798206437
-1.8679151230361013
-1.727699916747615
1.443843166979879
-0.5077947124942053
0.9285071428714956
-0.5029450971719244
-0.35815954320962345
-0.5471078477592216
-0.0018729536167576717
-0.7424271942482807
-0.4280397382337405
-0.1610960029898606
-0.019525072489459522
-0.11444123722914659
-0.13219679610724142
0.36140832317712834
-0.9666891901436961
0.09444854821803511
-1.0366429483022273
-2.672977978354204
-0.7330427955836144
0.8976925842231072
-1.0791467513599124
0.3591091190529522
-2.524416910651267
0.9914319338141416
-0.19821850144780306
-0.9719446642650209
0.39052201081831095
-0.411001177833679
-0.8164775129016082
-0.6202973648533276
0.3856960470140529
-3.022801624091353
-0.9633148475434081
0.8308519320922478
0.3635508442306419
0.06245574543619964
0.04566375252282426
-3.907877306389149
0.010169628725987966
-0.3207439801156772
-1.1567118173780102
-0.2562863839308821
-0.42341571996747196
-0.39261074368164645
1.4765410267617534
0.10154331706645933
0.36698113261304643
-0.07710402635101736
2.761205676241045
-0.05279078909994894
-1.2449625958126311
0.034774345509943023
-2.793236537003844
2.2576216340797073
-2.2698107239152208
0.03918707378894722
-1.0960439013794825
-1.1619518189943894
0.03939524128684811
1.1465682674759494
-0.19136208442183153
0.3696387201419494
0.6847897017979528
0.5537056520636835
-2.229189147335723
-0.4756556965462275
-0.17034186033996362
0.749740750848996
0.7377358226823578
-1.1375342200646994
0.6523092176148394
1.25536899970486
-0.5224773878820468
2.811656989830016
1.3798954153513807
1.0976645633134763
-0.9359654489679256
-0.1432919189431399
0.9415382258189336
-1.7558495185509706
-0.9894580623701279
2.4184680658828572
0.9663263606855002
0.028091449790991117
-0.4067189422728146
0.16099139445790042
0.427296767324965
-1.4171583214530155
-0.38497598727760857
1.489561601374198
-1.3677071716970648
0.5092597699061995
0.18255660493282222
-0.5905516290223295
-1.7783886711887658
1.1114380656235983
-1.4056473646396783
0.3335962882421709
-0.35323809874828555
-0.19094164087906965
0.2932339870090305
0.13991472981729913
-1.0176300577135595
-1.7202832277151907
2.4346495430792565
-1.757838097595319
-0.5578110339965957
-2.569112720806332
-1.3602419204386245
-0.004772302357663105
1.2337393023691248
-2.8280844532077705
-1.358320112361633
1.186245459267236
2.4827308459197637
-1.3186968567323198
0.29695005833809024
-1.1395209759140956
1.7311191107948776
-1.3787797319668684
-0.9196256441503646
0.8094480293549671
-0.2700888212530779
-0.3147953281049161
0.9840896685905639
0.14183464387007294
-0.44660776451238365
2.1642772997638953
-0.20716741262978894
0.10807470348994497
0.28109161070774996
0.06150035666392925
-0.6476794346745957
0.012196615424810826
0.0454487065975949
-0.31396307347316454
0.08993852538171333
-0.062405220708631415
0.8941320167642877
-0.3615872624364684
0.7020346217364157
0.3563530114592346
0.9543046420483109
-1.7576431324192425
0.19760647118894933
-0.4614868014867238
0.6299009405699775
-0.8168357259038547
-0.0545741613786094
0.6358666046116516
0.44216413269968874
0.49840348970451387
0.09331511061303772
0.12456224560992991
0.878473354449295
0.7214921222975775
-2.127061159427754
0.709381221742515
-0.045623150344392245
-0.10750675532028227
-1.9172816817113207
0.006001225297015268
-0.08186358650014453
0.7306098962568611
-0.08770821639436006
1.920454390729777
1.2796000566749857
0.32529752785971033
-0.3764946622856748
-0.18884008100182348
-0.06445267727812377
0.14638863776754707
-0.32836590182485537
0.4139783934660896
1.1052472772391995
-0.020978644740441126
0.10775094453427668
0.20887203374064492
-0.5152516852812596
-0.29793307325567203
-2.560941053985581
-0.8115173710470556
2.1011741324138757
-0.9340878715420252
0.13450507090068226
-1.723333508889692
-1.5544955294486875
0.6912278445495982
-0.954838767875781
0.9241133386218786
-0.16968616774032777
-0.8488779208951512
0.48863629905905276
1.2057165719010945
-0.7957786931446148
0.46654915773910866
-2.2546444245894786
-0.6722071073951936
-0.6054221230474607
0.971097557534942
2.869858363096204
0.7044785073451159
-0.8058701284555173
-0.3783121970551268
1.1121816479322177
-0.04004332635535331
-1.6470600919023393
-1.4710670631618004
0.6382911452323483
-2.933200859848116
-1.8491722831142512
0.32162492096171347
-0.48774535133219166
-1.3912640740660533
0.1025116054701136
-0.8719000726266548
3.540961871819973
1.0381240675520493
0.975593430784036
1.6817675528878293
-1.6072155983626417
2.8948672047190445
-0.8916411838656075
-1.375477269977375
-2.9209071503171042
0.8137864543354674
-1.2811738218354518
1.8262024649486586
0.3699418691647285
0.39591701223158826
0.31194722557163795
-2.495310657778154
-0.1559511363123424
-0.2291127031190133
1.4006712453042707
-0.817483408401721
0.10444693510962348
-0.011201137692125827
-0.4660016173623953
0.6353287025835723
1.3829294500621927
-1.642352604090979
1.3815927963232766
0.7814811751301936
-0.21515621140218275
-0.7343877972602545
-1.160628986818295
0.5911212717310418
-0.4164336013765855
-0.013766656768732916
-2.1770580367273897
-3.2134759249561693
-0.3474196791048798
-1.3187534167395623
-1.690133915691413
-0.45749381545143153
0.45298496801323485
2.05033499542052
-1.5940321709359178
-2.341205784338558
-0.27942789793844663
2.2324813516702484
-0.7804193778007749
-1.120394091395983
0.08958234359992191
1.6271187401354206
-1.1777804318547382
2.153715605354043
0.9166081655967216
-0.23540912634284886
-0.40763722943318514
-0.9202412176788387
1.175307889707673
0.37137345672347355
-0.07968986809018384
-1.2767372370213692
-0.1756945739777274
-0.38337307634263545
2.655241380497888
-1.6173926362588524
1.2938394311636285
-2.5481705186812205
1.0076461083695771
1.8828585549305155
-0.9276582107250931
-0.7024014944179171
-0.6713803947488096
0.1803764781693221
0.25387932869540053
-0.029220161155022628
1.056614933807308
-0.18743334061138445
1.0724310996244213
1.314225034361759
0.028952274630968132
-0.7344292892707127
0.3249767004769647
-0.12413971541599515
-0.5106291918619537
-0.42739184960318505
-1.5515107876043355
1.0552093276797458
-0.11017446156188468
-0.5526268772720518
-0.6757069968524219
1.1710380183953104
0.36810024412279635
0.1129281997828708
-0.006298994250241452
-0.4172630616903969
0.11619992366252879
0.08357676380238287
-0.1448822595731918
0.9046152186889912
0.24601881637241008
1.3989309307626274
-0.32480244753559356
-0.841388604645285
-0.5519080147004601
1.2904139723463102
0.12122607352516795
0.6419438038887069
0.07835033477210455
-0.9243345145717803
0.453294838611643
0.5129428880412366
-2.2014390937888364
-0.37939777382085604
-1.0204489335226097
1.1611660959942398
-0.38431576253726746
-3.2238349379769
0.899495040660011
-1.176194232385196
-0.5748475231882081
0.2762315487925931
3.2696230616033537
0.15160581488641514
1.659099628607314
0.7940031810884787
-0.6159728638834029
-0.47545526015244716
2.3224075170886667
0.5091023681986797
-1.9940816506340437
1.1994486831434583
-0.25300603642818004
1.0500498821084208
0.10836164990889549
2.3497004667463046
0.5641621438424019
-0.619647333881955
-1.1085498381028707
-0.5639853721258014
-0.72983775707019
1.5015181989868278
-0.40270021867630984
-0.3232339388174919
0.06911680234238166
1.001954196482244
0.22234768454651802
-0.3174208746747658
0.4358989567382513
-0.9751981131399745
0.32708626377224526
1.4617069728602787
-1.4072040255371352
-0.460585823128437
0.6170655286750563
0.5082171016594376
1.7020007340053849
0.6986352177468046
1.2221766310837836
2.0761163797982003
1.5909972827298842
-1.078661483971071
0.3386600245490088
1.0178926691261034
2.2909020370074793
-1.3575705350632388
-0.6472733470379861
2.1162467979956525
0.0468758192206868
-0.07637075410371427
0.4186800122568597
-2.218963297255191
-0.6114789243134288
1.9810452434072545
-0.4641824220427449
0.0032405301737921336
0.3293260754540504
-2.2130040481268725
-1.1484990152972019
-0.6668045386218372
-0.7614946566887951
0.07159946488354887
-1.265142760289018
-0.17032224610541247
0.7067858637919537
-0.35088212037479605
-0.5355182571591635
-2.4288709571282254
0.4055594362384345
-0.8067962092725073
0.5162502521258825
-0.33271837751239447
-0.49411672601326956
1.0641687756963005
-1.4789287777616336
-1.1124719299595116
0.9826163236230642
-0.8274160726601668
-1.4574908429486257
-0.45511879025570096
-0.21606255033390528
0.12347191243983127
0.367890560729942
0.05063094951921154
-0.329414326935511
0.5541583371584289
1.8728157889503367
-1.4076154564351382
1.8561036148611443
-0.9827491149475129
-0.28804667809281337
2.0886841724934144
-2.3829584867390534
-0.6377306877904639
1.5024922728145482
0.4478751858127043
0.14496587991681645
-0.5047827096743044
-1.6278860480959276
-0.01135360963145651
0.969198295255292
0.9042470266656817
-2.004773093872371
4.097798756163709
2.5187660547698507
-2.4349635556872204
-0.3246003331948082
-3.4477806818000736
-0.904469461372027
1.4076283551419082
-0.006545660029099218
0.5488712047336048
-0.8975806856606672
1.3146509706494613
1.492848256356433
1.862513324895915
0.5652712222034793
-1.2132575341521756
3.0436776719181604
0.7583898690389738
2.3545741624661694
-1.054723243589857
0.6175587344297959
-0.302897559745618
1.1716479538438782
0.29342162884960377
0.2748565868045905
-0.6630974929027282
-0.22798408751834637
0.2866530448304905
0.5253038680630495
0.5498090302817986
-0.7205665534613517
-0.6191356487264701
1.7599111669152385
-0.43051002679393563
-0.9878149109381117
-0.18377039254927102
-0.8129249036732858
0.2699730841866895
-1.673325604344984
-2.054562548666311
2.4744834201526924
-0.28827581247286455
-1.1210767224689202
0.7769074776670647
-1.1688406524869448
-0.5028502843493214
0.37342090485094614
-2.129789836358132
-1.3528062650887
0.5242796087308832
-0.7695939230718337
0.041389809260571946
-1.3174316770897097
0.7016314603635838
-0.10759682823351037
-1.6429669671084017
2.2124877631364037
-0.580543188332977
2.124029464954429
2.437373010420329
0.6917282837487738
-0.3323628630109375
-0.12776684093625898
0.7960607199500321
0.5481983111230038
-1.556426231258841
0.40771574319207066
1.0810989436177147
0.1561606264264811
-1.8596854774541975
2.4814678063162576
1.741138640486351
0.6065498691518717
-0.10093689040736702
1.5746898783141365
-0.5982295045020772
0.1358995878390956
-0.19922912603700724
0.14619800875995131
-0.42212936480432384
-1.712103762269264
1.0494839486602252
-0.7596123508409994
-0.45241896979709223
0.6270581873269094
0.37474894695058153
0.3667141884674151
-1.7523331610746329
0.40471756448145657
0.48261671990152744
-0.589403370330066
-2.7662718360831358
0.40915777647919277
-1.5516513909847405
1.5594199854561903
1.5386838678626804
1.6277248867815484
0.39068738780855644
-0.16577384623673866
1.4340017643806946
0.7233470493482275
0.8778533755842509
0.7464074250528553
-0.2996664960692761
0.05700706638521127
1.847354775603421
-0.33253171026470796
0.7796061137339481
-0.12382211172537609
0.3217695387569258
-0.020327785101885966
0.22605116660798338
-0.5871177746086593
1.20407196499474
0.28295445626546656
-0.26946368872995985
0.10322978466963897
0.1345873559496463
0.25101468362836626
0.2618063371766573
0.18962880556287723
0.7223171601349111
0.8699841338962413
-0.19738506372569437
-0.5361654827837689
0.46586031464445227
-0.2561019115981474
-0.4095558446748446
2.4766925542976654
-1.4190955423421494
-0.5129078113027381
2.0401901898068653
-1.2327565384460144
0.16563983893779713
1.4388887904549228
0.030671285625148117
0.0507673563178073
-1.0355078669928046
-1.5697976024287055
0.5548616198510112
1.3213821083500976
-1.044751943490275
-1.5787002862027961
1.1650955446724975
-1.1720500524933368
1.8039466238366697
-1.1691232072201942
0.05902302412670059
-0.4438670058761709
-1.291475232226792
-0.7913424435688204
-1.528707319646878
-0.28890919876041876
-2.8334889781442643
1.1309327783278016
0.2940504634355157
0.7407200950002795
-2.1726521744005343
-0.2765085870098032
0.2291563873972211
0.05289204036423636
-0.7324807209710958
-0.7798435188250654
2.724466475767115
-1.2820645852705423
-0.7554966048711352
0.1922949803042555
-0.18022647192291552
0.07126949454294969
-0.5475746606646943
-0.32109153856816947
-0.5805341503271719
-0.18356331450797359
1.2575718199210237
-0.5490577394927844
-1.2012480641646335
-2.194158275006617
-0.3066073357513719
-0.7760056998141437
1.706194450397933
-0.32076859364101623
0.9697371253679152
-0.289347498981292
-0.7877294054433969
1.0528934855366114
-0.3357406696056992
1.1113986666552205
2.6770011129079148
-2.0096305783591473
-0.9006070802163514
-0.05754385740185981
-0.01861664396087447
-0.24223481629155955
0.018056356531679467
0.5270770136378269
-1.4531109573932623
-0.03980001408472454
-0.5734162873697312
-1.466458262638026
-0.7595237110151574
0.21229974268226923
-1.3489192961763041
0.7492873954674009
1.7554975114444535
0.12297309621239906
-0.7629339708010183
-0.7837869734895322
-0.7470565162369336
0.7686380188670684
0.8164783366769203
-2.352554102342979
1.9722504121149165
-1.2094568525576157
1.5973832813449085
-0.9884071279534049
-0.9239495784961695
2.2251120940125575
-1.5995763847174482
1.5100169980648848
-0.7899864557747965
1.2030931217230858
1.6848127465954008
1.6270280717690118
-0.29947478400807565
1.4055475336975267
-0.9587575394935349
-1.3301396708262978
-2.2743931306755134
-1.6464386648108615
-1.3697376156675127
-0.27385363817790376
2.068434942206631
0.2126528660174605
0.2954864652469053
-1.1568986156715666
0.500820959132058
0.017434358111279278
-0.737651709919449
2.5291283546601733
-1.5778588401999922
-0.5593079232103172
-1.1848774214902396
0.11841647574681412
-1.1311930901435723
-1.281716528847802
-0.5590929930990056
0.17457603922684534
-0.1575594577093553
-0.6325386912169346
0.13400557475868646
-1.6036961390894888
-0.13241052332375194
2.274171146424046
0.06376475893896962
1.6628737074574456
-0.5840736025397197
1.6036723596789257
0.8924855225777975
0.25330180880567077
-0.4063352888593402
0.16831983810191647
-0.6379305521569134
-0.5018837337327817
-3.4078082638448333
-0.5588125312841661
0.8541698539493486
-1.601749206089245
-1.1876439488178863
0.7445726679570691
-1.0796223073343327
1.6764394145642274
0.21789608461480822
-0.0010525485279978745
0.3649662882105441
-0.4861535588937939
-0.34421608705923373
-0.6688607724304464
-1.1844740057149945
1.0451880089283523
-1.5756470447844684
0.6586761930455904
1.4962396713147168
0.4411381707407917
-0.05228848952031279
-1.7619694912472945
1.1173338341907864
-2.444477134849083
1.6481404460862947
-0.0754081119567054
0.5768265405990772
-0.7152678944281774
0.16225568866389578
2.9001407920960878
-2.6323628485074804
1.3849123910034924
0.7468925251280137
1.1719465270606038
0.7873043048894406
-0.5661009978811846
-1.0535831911329172
0.1865853083679003
-0.9769045527650565
-0.39532281981892026
-0.26772981575191923
-0.4001893627989782
1.949418233943391
-0.35327718165756755
0.7677836324412481
-0.27150434674893753
-0.576041726994608
0.16235301117111814
-0.36580011325978246
-1.8576474884790055
0.724982263028298
0.48903192510054433
-3.7345887331687426
1.691986342769592
2.0795646695434487
0.01659910357947606
-2.259247378863284
0.21619976686386114
-0.7859218046165378
0.4086942209959017
0.0490377190123459
-1.0220715284093567
0.32960110121250547
0.2971360825782921
2.4820752756110775
0.7746183398153751
-1.012494227180431
-1.1954662586283522
2.423889937100302
1.6807631214948437
2.4085119729794897
0.4533164558532059
-1.6029096753643208
-1.2902759686113938
2.630281118795445
0.9471246211573403
-1.7063749135430084
-0.8623466385005735
0.226837288257336
-2.6831097766664325
-1.5218100328320254
0.7413797613495071
0.8300848757901308
-1.4974377288328051
-1.0313086357832746
-1.813856779761299
0.9707850196259881
-0.13811460430535633
0.0746484313704679
-1.41467053528071
-2.459577990892836
0.28456555224012936
0.16651765018709402
0.24141673659282734
-1.0010208474780409
0.4059654569181683
0.4032281412327234
-0.40812803481585896
-0.16172447938337708
0.4752562008582626
0.10908195365158771
-0.17428835541645113
-0.35191314550364644
-0.2683469509199569
2.362734684941639
1.1136085670627096
5.121807934733402
-0.8104368292357073
-0.45418793484783143
-2.852165018129732
-0.2174626752315255
0.7282891243719868
-0.6747248318065787
1.5749061461170593
0.5134864508441337
-0.11943050286673526
-0.3603652507081997
-1.2888875675009854
-1.805538299338576
1.8890308322474358
-1.063033817770744
0.40943005706719665
2.585306024764236
-0.22810502147625
-1.801060343158988
-0.659900682249425
2.983452524042315
-1.31758925338364
-2.91768354257167
0.37095159328899746
-1.2141483121571772
1.0423655231539461
-1.452249896102741
-0.23654726978008953
1.6261999067686899
0.02021198923986133
0.6269929628553004
-0.06502119033926514
-1.6583668397353228
1.765441164295401
0.844592401244538
-2.855497373323253
1.725572499638032
-0.9938301185235413
0.5328983030915364
0.08233421225356075
-0.23136670937281092
2.32324581211268
0.5144565814598877
1.0073855648562946
0.44609675720567676
-1.4426038213245846
1.366666901485146
-0.09354307807015756
0.5873297414802043
-0.21514098475866253
-1.5867725568867455
0.07118135892101779
1.3810734768480402
0.9142553442640537
-1.8356113794362974
0.36445165780187794
-0.7075355967852375
0.44440142196308374
-1.3497813442803803
-0.29553471041779106
0.37232238180693944
0.4629168438357727
-1.068285301711875
-0.6862275456883407
-1.2153975072731176
-1.0831157682374897
0.43207720057000026
-0.21439296377227973
1.2545971496544572
1.306253229578651
-0.8073188802231235
0.08511721116052666
-0.46708386019453635
1.614567629028587
0.05426073976226905
-0.12617088017699538
-0.26949515830913295
-1.1777539150374665
0.7376833531992837
-1.4281630731101445
0.6727405582448706
0.015562411444497753
0.42778701684327974
0.5198415866307783
0.16845314896463237
-0.07709078733633459
0.7642634933263625
-0.12766696256999274
0.12605505726581917
-0.49759561078686315
0.059235114360358804
0.11669673706986759
-0.5592553689926244
-2.7299591805833368
-1.5701796937311279
0.8904879300471933
0.9056002195818802
1.5197547165781424
-0.05000779927076172
-1.3076724701316256
1.4364363226942267
0.250138871766872
-0.5424637469988632
1.7196157358461788
-0.05786552632767593
-1.8329350588901907
0.8346543356631734
-0.9968519337490478
-0.3754619635729181
-0.14917013330291987
-1.0349093438562347
0.5563564234923408
-0.053233117370245706
0.2314460726361989
0.05355669227993621
0.12906920020232504
0.8123003698793811
-0.2242662749261308
-0.7231519511318758
-0.5109351705110325
0.38314500592097067
1.7088041372642335
0.16568809564918077
0.33701441586253816
-0.5640292695058475
0.25777712104403533
-0.7513299598504103
-0.1148682920540154
-0.2811189951418
-0.550421315775874
0.5821155486350106
0.7458539484924228
-1.2316114463993817
0.24328707039636563
2.756300008889369
-1.1251897045350865
-1.8849851752652156
-1.6478342160269217
-1.0224086258522163
-0.5626689745760823
0.33811944410679096
0.6595265168832604
0.23929847581799854
0.6162094144505996
0.6372755085532136
-0.30760442235166835
0.6451172626421015
-0.7871781712214075
0.0885550304153416
1.1783094411923027
-0.22727853985547158
-0.20315352089922425
-0.2822071108988817
-1.8575861423991487
0.7572879313690986
0.5635733312752034
1.0771188402577812
0.20162465123515014
-0.9768196548020786
-0.130127988605673
-0.912967024048056
0.13673597346625327
-0.2649060245179623
-0.6007243110138862
-0.11709592174662029
0.42948605876815266
-0.8208309959617053
-0.14155728332047518
0.0053791030226395895
-0.06170262787309917
0.1318642900070656
-0.11101078071382985
-0.19595548240055874
-2.136382745277385
-2.2878010905580686
0.607807207171374
0.31130936465913234
0.3007618561146331
0.1715647104733876
0.5799039866103202
-0.4334152343809962
0.15530645293808448
0.03386381725648601
-0.17386379941057714
0.8107697229662536
-0.5846058097924084
1.0539565378979743
0.4410462942307873
-0.7858798601188507
0.42460967982242426
0.9071948234460111
0.5776157220632748
-2.410511540251671
-0.9246905235119297
-4.6329048938465
2.406130985720385
-0.17640503631229812
-2.695875408699778
-0.25419389142926213
-0.7103055980810343
0.2947037327025851
-0.2883148013827262
-1.0859222978664405
1.4088785818913854
0.27259440965974024
1.3254942450955889
0.5577012057614509
-0.15448987476428222
-2.5601432055654647
1.4730951412501723
-0.6272919160777554
-0.0637165321126555
-0.022149137436752356
0.3923434048640101
1.4753553927698624
-0.13061415933330892
1.1892337506777733
0.044724266900886406
0.08108314904563113
1.3673667456369376
-0.7744736276106501
-0.9644685676947977
-1.590482467675468
1.073454674470735
1.841919982926862
1.9522393535893574
1.1858851840286195
0.3991164394751692
-1.2018347882179385
-1.4283087790930917
-0.49701840855054474
0.08648979055258633
1.4118811668943778
0.006712101493244613
-0.0174264653404032
0.733132727323402
1.238771341206162
-0.6030761784452925
0.04173532185433774
-0.21375072349970914
-0.014426468152139821
0.016161992998459686
-0.008139008955553731
-0.27339523442973046
-1.573358709657165
-0.7347905397472461
1.2444357803141222
-1.3508332313708473
-0.25932008941050966
-1.2247809158955885
-0.13734760496115012
0.3580894680822558
-0.4729075338363599
0.4933988752019853
0.927438936544277
0.07554617677235094
-1.2904203464722928
1.2558886299473975
-0.03249060690596654
1.4497850257772158
-0.912408446306991
-0.7184208244380088
0.5771458353068587
0.3633694880368054
-1.6550382058507958
-0.7877005043103708
1.1410164100824691
-1.025830842339741
0.9843505703289642
0.1639077961493833
0.10191956870404673
-0.06874420525928686
-0.8596842992447737
2.9996958743544764
1.4822779959441337
-1.3412714857153587
-1.2779396700965173
1.534383401415141
-0.7934955878820025
-3.2451505154968863
1.4390890561526082
-1.070620286833367
1.3337219323367657
-1.1534930233178318
-0.7509115129919761
-1.8175940240315924
3.7161016807410867
0.832532038641049
-0.06587416862293408
-0.5010418592089234
-1.2323656081235033
2.5207539637014835
0.48167374875261565
-0.825724212467275
-0.6441097227686224
-0.1912650394260174
-2.291134171561778
-0.12498668140542993
1.0882043542714044
-0.4166232464046157
2.539582179949627
-0.5327318087040622
-0.9715163523223636
0.9118125225967653
0.9603859374122917
-0.9857325586854557
0.19128880659732317
-0.9540279046863515
-1.6831030449193896
-1.1450768872391242
-1.3123422048451605
0.6801047377472412
1.7730670957954127
1.4831422793316593
0.14946360178373674
2.1201259984277847
-0.0063250658854383185
-0.11051691409124177
-0.3922502439803719
-2.0286946012275364
2.270019580589077
1.9556992022102615
-0.35685386449142875
0.3987025331163019
0.8293995134857493
-1.560280807472474
0.5134239263886611
1.0147651081805185
-0.647711557564785
0.11224049924399648
-0.7249415894875748
-0.34538009660191216
-1.707946047519879
0.8687582771988356
-0.2390194153110037
-2.435424701920635
0.5394075147861888
-0.22695755217156743
1.8638120097924913
-1.1330161342876084
3.245608249774519
0.7105642307773842
-1.6145123602729818
1.486624808352174
-0.6076275580267734
-0.30752280481022437
0.08160386154788783
-0.22900768296622478
0.5593281839723074
2.5208180205104695
-0.017879898037001834
2.246084585807947
-0.9010595046631454
-0.24612912438902743
0.1985259797237783
-2.1140221187400594
1.465126377923713
-0.3265409775275525
-0.6698165700717005
-0.8388813607639177
1.1332821358822947
-0.4154635368361726
2.2694966160490675
-1.2579835651536773
-1.0647728495049542
1.278138534655291
0.4229113568139878
1.4468886124619702
-3.3402629590184687
1.6697904245614434
2.2755294531139256
-0.2746475245254413
-2.7869165894360965
1.9473983123021588
-1.478111923823078
-2.958112901412607
0.9268243051551796
2.812670723948492
-0.1471924118089682
-0.09254826240353979
0.011384608353607401
-0.09925815462503783
0.06520956155538228
-0.2814549426638687
0.7182765865960569
0.5867800945557494
0.008108220313076824
-1.6594798378620697
0.20160450465562813
0.2783883130472848
-0.2134847445933354
-0.6948068100304666
-1.942580804251758
-0.7098293987697044
-0.23766730070448358
-0.7145344165280709
0.8028214678431431
-0.25679803584720334
-1.498068464032258
1.4141732466137202
-0.3978956665572591
1.8086519078314187
0.14325922642966246
0.37960799069434714
-2.1261447879616644
2.0921015524388293
0.1646002426856066
-1.4070108876037941
0.7149623027218859
-0.9185787630601628
-0.06825465936526594
0.5289774620665293
-0.01158113448488987
-0.5342632050554922
0.3273829470840556
2.0810474013963547
1.0997157892906098
-1.0638286609595982
0.5640148839379673
0.4439351039405904
0.5262883453261397
-0.3997659496592292
0.020855186105161898
0.08173502390673212
-1.015887720218779
0.7781408069847161
0.2780071635897011
0.43111476730492115
1.2652935019590519
0.03126091750615713
-0.3609106294460703
0.5848998341563122
0.0320651359397806
-0.18816828698268454
1.2837825191526693
1.0217688325364405
-0.3192310216433969
0.5394723586007861
-0.3694154814580253
0.033025013451353086
1.0087470038252708
0.32270324857451504
0.15047280146938677
-0.7149478170221539
-0.8630412137105354
0.3508340883935165
-0.6791609105643978
0.3882666042254433
0.15756065278479067
0.009269449399584963
-0.08433278480106197
0.14958898532326764
0.5102226135995642
-1.898030178791956
-0.25888598013240205
1.1726402532122158
-0.353033325456401
-0.5778841188690194
-0.31525534087509843
-1.6750751385841276
0.04510199273808388
1.006064494237458
-0.5931377173714639
-0.1860009475111563
0.7989815794572873
-0.06634684800226552
-0.7812591480114313
-1.067720437325079
-1.1235246353452397
1.021536078691618
0.6522876041312065
2.940982589512738
1.2504140510415953
-0.583464518758448
-1.2229072563236818
1.636087710760081
-0.15642295059267305
2.768083328821302
0.9819456435713119
0.23699250580636688
0.01711453041521601
0.09475393584019239
-1.1247438520526858
-1.248870643446311
-0.9141092939901105
-1.2168089415494767
2.606878707701169
-0.9108147110431293
-0.13875634488521213
1.8852800745288731
-0.041255809138571256
-0.8324790945649481
-0.33641563271838065
0.2242224573690381
-0.8702329350060438
0.9407115460887995
0.8233413102583745
1.1093800599222592
1.5202142838174468
-0.3398325054347575
-0.043423947892992046
0.33796635685058446
0.12151656860977944
1.680456977104673
0.24468460080300938
0.5637542645750617
-0.14027098582165717
0.15842982617624493
-0.6921076775828623
0.015576787489777637
0.8698314304566547
-0.24330046429059662
-0.34453631880992514
-0.35059147504368543
0.6311161424210502
1.038849597229232
-0.6932376113413947
-0.1353612428464924
0.1463180230226545
0.20146185383050808
0.018776570204949057
0.04804026422374572
0.2178922918226516
0.5700081547091354
0.02868551519730419
-0.08968114239349606
-0.891346274552792
0.2758428102746078
-0.5475551930918788
0.055641800680359836
0.016534726063099744
-0.7059595575575505
-0.10393245568876368
-1.363767536259478
0.4349138172209185
0.19588119660929013
-0.5647408543639988
1.03274445269662
-0.9620138906316085
0.1694958775733855
-0.27655005472982414
0.3982434697669832
-0.23322984618704853
-0.4857966129070952
-0.7565341872027176
-0.40357311360620823
0.30818956354756166
0.0904667129380211
0.08155178056009656
0.11880889909688744
0.5540996317943111
0.3374387956507419
-0.43216605435266997
0.08384093196520569
0.08493363863311956
-0.06986796244912347
0.06356841394320877
-0.294765195694593
1.8344735828039815
1.1282354973556579
-0.45196322462360083
-0.6965045805584829
-1.0637032335964614
-0.2706097325759795
-1.6463124689268314
-0.6643523453963609
0.8471388880810428
-0.2532158226789719
-0.9239403483243483
0.7295175796063145
0.04488549321285577
0.6757009444506609
0.18241933048318915
1.1378690386735588
-0.3077820943761382
1.7321453921904302
-2.091616959463318
-2.9224112916195657
1.9231699124665445
-2.318071602198353
0.48743106434937394
0.11390252817765396
-3.2514737303252224
0.382785876719828
0.5596071411777815
-0.13350192198025035
-0.1544255200528138
0.8035794623918947
2.6539881776000467
3.8358815701644122
3.7273785032212907
-1.584109337434721
0.5488842499520671
-0.6699531782456496
-0.9501921272290639
1.2732498392746998
0.3165745564964334
-0.07734234103518538
0.16698585158301843
0.20223791436052826
0.7221028727272081
-0.5729169049178066
0.6706209538598622
-0.7214177678685063
-0.5634512757117852
-0.35234846270707726
-0.16238528996554855
-0.37258278801919475
0.3300602370314476
0.07914198636920741
-2.810380647383272
2.2714473036711134
0.8325791799689883
0.7332564414684238
0.7782797454147401
-1.7481372305996827
-0.7939911406283146
-0.10280839383233747
-0.42674129585311144
-0.09940476194851164
1.1589856967960936
0.8481327246529267
-1.117702035700369
-1.1235394606078353
1.4656317920208948
-3.451119938835191
1.0615173080218734
-1.4562843888016062
-0.7530917930198922
0.47574659890417004
-0.03570880659548198
1.0857104787130467
-0.44489988754703885
-0.12385452205697974
-0.06256961140897402
1.4989838748348758
1.0884691015423333
0.1123332628185125
-0.6466107097770287
0.7834873901403173
0.18816765833451235
-1.2040460896466607
0.848985370347091
1.1913372642738091
1.4468193380220267
-1.7644639681557281
0.343998404330205
-0.90307246953101
1.0889239661865004
1.2040530627754107
-1.279513808583932
0.9631499888871328
-2.3878548772299024
-1.459237316849981
-0.12304704350960775
0.27056571720793193
-0.28628493787920734
1.698094053836368
-0.7345052219527732
0.5130898539618473
1.9747106319467682
-1.7903161735121325
-3.085289871900597
0.6622809639220942
-0.9479302813985561
2.5511847912856407
-0.705030236525313
-1.7581759503182885
2.8637755616086746
-1.8288758602804844
0.8053693417181664
-0.21798714267983985
-0.3618279152741654
-0.47152397009968156
1.4127726218374115
-0.6496680594716375
1.8290712300374825
-2.94955645183083
0.2569964196921622
-0.8453154246649243
-0.042320005080904416
0.32148446145708987
3.804619317285456
1.074544699017651
-1.4323986963169282
0.34951840225616543
-0.11932704296157556
1.4519341011196352
2.945869472919327
2.078510617699508
-0.8897404859569167
0.5433336168175967
-0.2693406005605321
0.8207145775817445
0.26377149895847785
0.21230530419515345
0.2915270639534509
-0.216901634090406
0.8975201972573771
-1.2063448842636018
0.8411576567178519
0.4362071970693297
-0.02955446425903228
0.22699202298700513
0.14263956558951343
2.7878407050469494
-0.229400997166421
0.714847480907769
-0.49382369609740945
-0.9257234881316881
0.8417967054494044
0.34467441965064355
0.0647793822106959
-1.67917251840234
-0.7670341706607516
0.9613716008726714
-0.21971674070516423
3.5385770772897978
-0.055521202070421834
-0.020326064269427967
-1.9531872190730315
-0.8877890857479566
-0.8098900895350437
-0.9325178137859904
0.08826367792937853
-0.7705082381176513
-0.3616889200536206
-1.0611444621865798
0.4217402755042564
-2.8135219873958572
-5.030924630731277
0.7303942882674633
-0.8981087425297377
-0.4587699689435668
-2.0535947021410452
0.1554865052692433
1.070069041340356
0.36865009151361305
-1.2927808287585485
-0.10878031663677655
-0.6643880001879013
0.7316225917370596
-1.5326039387026966
1.3842873820038304
-0.4299721858049949
0.41175908574232256
-0.6032687300682136
1.3023775220346834
0.658429871634665
2.0755707762310296
-0.5155776125262237
1.0323291072959084
-0.5373005801140922
1.3427619718630106
0.9012208775736569
-1.440287024030386
-0.4572927486890664
0.09731013402093705
0.8143734585743306
0.6460132945985191
-0.5687637281479779
1.3263930421519816
1.2499442107378553
-0.35855905681236855
0.11920166445910906
0.30355511727242507
0.0702697381925836
0.334665486990785
0.43974374444282055
-1.6829314688546564
-1.6368016262222462
0.7113546775954526
0.9710566863402312
0.5574440120073056
-0.32996963611370483
0.7006068880567057
-0.7494897172445599
0.3205728827006583
0.6569236688096632
-0.6681990704640195
0.0485338453268884
-0.6403259070785169
0.3739135595574114
0.5627622356367978
-0.04128434990770159
-1.1681965702707826
-1.7862318942561528
-1.1144820616198363
-0.39694413217614705
0.6142244803073997
-1.0846310529949912
1.0579868330991844
-2.470877535845639
-1.923092758206301
-0.6881235475064418
0.813108385210493
1.0094627803015472
0.27636267835011735
0.11755628046500269
-2.888739615807205
-0.028979596012894543
-1.4425803960570778
0.6108539365730274
0.795592812166207
1.7608538051627507
1.9642230059954415
1.0991408409568888
-2.2769866195777646
0.8042027487233885
1.759929691782285
-2.4022698600016836
1.4218214814034318
0.1720870509689461
-1.299174809730014
0.5906006018206776
-0.33953121808572123
1.075209395656633
-0.2687167383888262
0.22858800887136352
-2.4891502168218698
-0.2979581272679899
0.040912622707492616
0.8760487571245049
0.3292962923291315
-1.7404139817425222
-1.38452541873218
-0.9357968581130577
1.2640971900324993
-0.1377839709152659
-0.38349050613775476
1.0112995499329391
0.6877941650348555
-0.538309919442907
0.05860698783848359
-0.6249215613812089
2.042849175275448
-0.10443580135655325
1.7768078953330486
0.8128617537176646
-0.192105915305169
-0.5169032855220539
1.9006837933177227
0.3084762647955974
-0.7642503181862622
0.22125023799099444
-0.3780217635550731
-0.23323268679107126
-0.28448731836774827
-0.3126279428050083
0.8863901897866212
-0.26713154538444883
-0.254394474417849
0.39555250456327645
-0.8595462589148325
1.551609432539485
1.9140338896711304
0.5371704799449649
-0.6400853628479511
-0.2930730145207779
1.248983020098174
-0.05768201175606214
-0.703150952376281
-0.051634448158098374
-0.07032488325063421
-0.14170725724335284
0.11306451189934767
0.057553156959859075
-0.08071774308942707
-0.08808754929883927
0.01906749737570341
-0.05016515740060309
-0.027052474764035175
-0.1386638754945882
-1.2458934300164655
0.18990331635317223
-0.15307330359555885
0.8787485627617498
1.4766937297834803
-0.6623226720857341
-0.21307141221289524
-0.20967200292725385
0.044893655604688464
-0.9835788145589555
-0.5401994272634036
0.00963259233367572
-0.7541263776743157
0.08136432882797837
-0.7780592443362421
-0.12648275810184692
-0.6032885589430903
0.057202925687538854
-0.39015971624136525
0.09646631624708814
-0.4112847372698991
-1.2693024627860978
-1.0422167652734644
-0.03738882166918227
-0.11915578869438398
-0.2761263235543635
-0.5260555953317416
0.1263990328687412
-0.049635249407459794
-0.036990332810059
0.04755474089187047
-0.25810527171614855
0.14791115578761732
-0.006816851193670038
-0.3302158991900357
-0.9566405410110733
0.0709424007886603
-1.7606418026933375
-1.0352983863292107
0.11864277239938996
0.4009908476779286
0.6924919325769595
0.2144534134123965
-1.4727835799715145
-1.030130033434901
-0.9081655923144404
-0.49599187621817786
1.283508740789321
0.5512254087878736
-1.2906485796024194
0.40428020948846066
-0.9219762030879506
0.025994090426515522
-0.5480086422199909
-0.41506935503471915
0.787692857675412
-0.4873527670083146
0.24927844854615314
0.6964952775507006
0.20273094853192997
-0.1654560724429443
-2.1628936510843872
1.1622815647575309
-1.0355986952255103
-0.19930139629589483
-0.14499590075204216
0.047642691124336126
-0.05468107331261104
-0.13186260780524622
-0.5144862153395852
2.225342071895785
-0.024695943900877555
-0.1378217611537332
0.2294914943423578
-0.3995259370872401
0.9484696818695293
1.0969370246592647
0.8323043060158634
-1.0455357521381616
1.2869637203120259
0.34759753267418236
0.17705473761398344
-0.37820314390271875
0.731077311835251
0.3990111884956813
1.1517130974281704
-0.2453098592347555
0.038184054079486926
-0.5894538132716451
0.5695954439543965
0.12025449309634086
-0.43716664488249074
0.7336401034647405
-0.7876683248671134
0.7442035905122727
0.2888612179846111
-0.713281603447308
-0.26748797054665235
0.3189454909248663
-0.5750028691446895
-0.013637941998749991
-0.11499872221704166
-0.025994528834389685
-0.04809519024568377
-0.0023385945159815984
0.0899494562501184
2.3686319309219495
-2.415077570766475
1.4464413761275738
0.11604500695522665
-1.1894016156167717
1.7202331563532098
-0.9677455036471914
1.094521033311048
0.46780356791190364
1.3723546040924204
2.002812246401843
-0.28292497833852615
0.5675031028689702
-0.6864941385241982
-0.027143104727593854
1.3682657141666368
0.527453281677531
-1.537023344437114
0.1506687681009574
1.5073980892785814
-0.09156120302708827
-1.3300196208478858
0.16342946497354613
-2.086508733297169
0.1562764970752847
1.281908847090342
1.5989121000778446
0.7627376261836827
-0.689122721064563
-0.3093888967595994
0.12765027033506843
-1.4543816115094395
0.18245520824444886
1.484323314755889
-0.07926202778841614
-0.06954469287420413
-1.061536238725726
0.11198290182457933
-0.573650351547963
0.46515233216479696
-1.0298034055629273
2.1829977404074388
-1.2506867948316804
-0.9272937900601527
0.2645354067904995
0.5457030566606051
-1.006175772469183
1.1229389985256055
0.9162430859397493
-2.2348116374334217
0.07593921017299185
1.681462252296171
-3.2924595728705324
0.6113219796454548
0.911341055828059
-0.39235070305364544
0.06512574297725109
-3.256778464256746
2.089696078135086
2.3091182454699553
0.26854101630134736
1.8810304915724512
1.3743034950575863
-0.8153422453989543
-0.2557409993592727
-2.9005015299802497
0.10607911874092874
-1.3447446449573932
1.6287141201149207
1.6067260686425566
0.38757035749155316
0.2183904117845302
0.16649612507227993
-3.728436356335039
0.3509883147081681
2.006928777167681
-0.7736420715093273
-1.333447535133711
0.6976597492946408
0.6064691763464345
0.5746129868822968
-0.7865168789280937
1.241857274251788
-0.7884530895042794
0.8188937792873185
0.5246863561066543
-1.7532988055855845
2.1762142464122296
0.7864757074524309
0.7101338630345378
0.3090365127007512
0.6565850223676499
0.40627034454637745
-3.2960100110780584
0.02609787745191284
0.13979414365431023
2.3927902073592775
-0.13534238619171782
0.007785366346694212
0.34864716965225906
-1.0193828010495514
-1.6039877605618231
-1.120008421830663
0.6276820066171088
-0.9802318917596611
-0.09871284567488138
-0.6835361326095225
-0.5004479714850087
2.136498661212074
-0.6670129418424329
-1.405058217330363
-1.6862369279709706
0.4620916953819777
0.7829065585573609
-0.38463931567130244
0.01308466474792668
0.1567262907625621
0.7621758600338525
0.05687068058317895
0.5295768843407533
-2.7910468668570507
0.566261177137189
-0.24995044759852142
-0.0011847675046588266
-0.8999133066584318
1.9892764307908755
2.0460662553360383
-0.4617685482357176
-0.09735555615479909
0.3259181739624295
0.49103388340269893
-0.5296003555661415
1.2482378485157466
-1.4869126945300633
-0.30849060823830604
-0.2808311680198626
-0.6023554680079978
0.46773867412622466
-0.05030123102304603
1.1043446713574891
-0.7728704850386371
-0.2737972285993348
1.0597153182041807
0.9303515982965156
-0.6400648870553718
0.80630166621346
-0.004080414191644264
-1.4797513189675144
1.2542289375597946
-0.5108877414189834
-0.3768162173705096
-0.6676098310358655
-0.7216284991450722
-1.115769979970767
0.7976383646416797
0.9127317200472279
-1.725672656353949
-4.625451333662355
0.47508337895701286
1.622382162686366
-0.6861963616717631
-0.6601942602100234
0.15551067139657984
0.6214227691390752
0.19718364518846163
0.3286378068301296
-0.6334895415342259
-0.14584512990609874
-1.4097321950617738
6.638925391957704
-1.1779231103585364
-4.025685017223608
0.2507678137171901
0.2120605601502795
0.09102761546763886
-0.14290340151629558
-0.35570907317332223
0.5090246412866177
-1.117208827364366
0.4073643555876376
0.4698629119485685
0.843922146004839
-0.014961808602930103
0.16997120331701385
-0.6756945779627899
0.6639185661422208
-0.1634174191342649
-1.0466773920981043
-0.13052528963128274
0.375663854169083
0.74079427345085
-0.9517956136664388
-0.7384083269361104
-0.47623946168991627
-0.017063579166126573
-0.4578992490697437
-0.311030107094855
-0.021207046461381267
0.6498699793223481
-0.9797086921280947
-0.09464183547342196
1.7031256731218485
0.17412671641899097
0.5742068157840973
0.602674675026349
-0.2940969527052462
0.25086082901040874
-0.3608311228636509
-0.42660700007489616
-0.7084292475767879
0.5884065232466057
0.8836578472471871
0.29370586105333896
-0.3132226493158951
-0.44400892988500024
-0.5973388912291742
0.11882942109853298
0.320046201876302
1.529901374977991
0.44145305000902413
0.24567032890788
-1.0763401131545205
-1.7018862755334532
0.916428161578353
0.1835138877431617
-0.34575918677597617
0.6574964039226264
0.38729303300053897
0.5105553129023188
-0.6539563428540534
-1.0317373569335786
0.16285081498213547
-0.9544268084262807
0.022668394392069267
-1.5578730964404925
-0.029555598193567758
-0.8920564757440892
0.7340564054759703
-0.8503567857344374
0.31524936408293086
0.055461300412252466
0.447047058830398
0.22337084043954356
0.3808858181373802
0.126767307032519
-0.19620307164713435
0.24534077808600932
0.20408643250741454
-0.0896614058656653
0.27688173004125
-3.013361573463649
-0.9264039582857293
-0.7992460647932287
-0.7100439087545243
-0.6012239203002764
1.7047997175623075
-0.7020369739130388
0.25647016396089584
0.9370840480361275
-0.05506063567554011
1.5172669086424686
0.11696650851683757
-0.09470921851460723
-1.6629169550250495
-0.7922939463004062
0.4760470211951661
2.0128341702528703
0.6890445963168145
3.7942737645403017
-0.4812998594339173
0.3242733220015078
1.2641823352193473
-0.31700771023533947
-0.5633442261779472
1.747757897901124
0.10485268933168503
-1.1766034909389247
0.13415451885272345
-1.7603648078014267
1.7198073168067556
1.1873196356428235
0.350096753270489
1.3430705283420308
-0.23036697157690872
0.926435413847255
3.4876096438868855
-1.5946938952895913
2.747352047066148
-0.5356647833983951
-0.34215548902194404
0.8712901958146934
-0.4310104603657216
-0.3228626653181015
1.2198221812822139
0.2600993919953532
-0.37118397146226156
-0.24773721058531611
-4.213560258477899
3.923604141302221
1.974632150709118
2.314752579598298
-1.8188760026885156
-1.5124743508550986
2.126618013201372
-2.9140397528731365
-0.248921962164955
1.218236008415032
-0.12892884516111439
0.6527003808301175
-0.6417301373561247
-0.17603956982992386
-2.0248432830320193
0.48376344346643513
-0.5527892293938466
1.3545370080268506
0.37819847327815825
1.4280669235678742
-0.20656177587675792
-0.3506926576585216
-0.275914958506381
0.7078541419246329
0.3303358285228707
0.3417390159839423
-0.17282649327374291
0.15344931919698698
-0.6234687541314538
1.3064437993580853
0.04048553247904963
0.6623884814119826
1.5074618432822626
0.05297563210070698
-0.4701459740073407
-0.10002605661112576
1.250705445617123
1.680174942734787
0.5235084568178519
-1.078753374772198
-0.45934568210761045
1.3476043386860286
-0.7218676205714399
0.5239554334480477
-0.00834332562993002
0.26948579897669994
-0.2648400446419373
0.9673429538327405
-0.9395352269166707
0.5279978441042624
-0.2714546327402505
-1.1959294541984418
0.03433291439445088
-0.3059052924268655
0.48899030433006163
-0.23426040536021892
0.48340646442504714
0.9046721961077216
-0.02475396379960702
0.4441712513831723
-0.9552978417358338
0.8039489826614629
-0.06835779999994829
-0.7784719523249496
-0.014739464028183666
-0.7019177968663977
0.02294456556244691
0.6886408538135879
1.2256937178187524
-0.3298363034917167
-0.18532923825261585
-1.1367437635293693
0.4171610491962888
-1.5435304496593796
0.28884451206331485
1.2537932700206988
-2.8509836347269193
-0.19533383939198484
-0.5558197222296984
0.1232014173222634
0.3852484971635095
-0.060493726852018204
1.2319161769568852
1.2239559122209271
0.8471408470969921
-1.6412709192041066
-1.5866895302360442
1.5080720451192577
1.44450779496319
1.4374156504384696
-1.402656552808754
-1.4248741791272708
-0.06349080617209893
-0.45110940177059156
-0.29108069113894236
-0.8906292837141742
1.816410244287749
0.3288969134996636
-1.6713221234840152
0.02568993535741039
-2.3852976894389077
-0.5689918272794178
-1.1836761918038408
-1.4658930367978233
0.9939899607992281
0.17313764990073693
-1.700556704298852
0.6481069521074418
1.3167874630963259
1.803839300039253
-0.1396839263028598
-1.8401780072121656
-1.0741150969904327
-0.7791980256684605
2.51409615771406
-0.31743908588018505
-0.12352985446788753
-0.826838084392273
-0.11700047208067868
1.2990878311313152
0.5649080288917785
1.0270835195863004
0.2061926480888006
-0.42872887923948055
-1.043087257784143
0.4552661447791291
0.6941631376286802
-0.7824969882923107
1.1467549821470682
1.483429501755955
-0.15366245618814386
0.2366756337482927
-0.12524787338790633
-0.23261230493213872
0.9536459889977043
-1.6939775461009625
0.12893468811948508
-1.117849007783787
2.9656655916938255
-0.20461021575191612
-0.5378886323416922
-2.4705458417310586
0.44383408367362015
-4.522302171504274
1.5629006091213702
1.4240319077671264
-0.3059057144438469
0.7800181029836437
0.8447241031525031
-1.4155918223394157
-0.5471642075839834
0.9053734701863946
1.7183900489928634
0.059902448491491546
-0.5284426262639939
0.5926234433003832
-0.39546700382425165
-0.8357368734101477
3.390678444278349
-1.8319499012102554
0.006024539672736973
2.1405416811829068
-0.5580885346450802
0.38630600058533754
-3.153069187798029
0.33035093195967774
1.660034499145862
1.9301076404080357
-2.7540760151104036
1.3657506570456053
1.312831916450347
0.1039784027557628
-0.5269217325367592
-1.9241186395259156
1.275897399738308
-0.6096887843683707
2.3061413266314834
0.28688237859904536
-2.0635972517234684
0.6100173495402189
-0.06403796348564894
-0.2896108418443444
1.6320474190795529
-1.2430630952936297
-0.16376487442301138
1.3304794596739586
-0.31107518655173166
0.23454244175936118
0.7294372125912871
1.046479384546078
-0.9110871256960433
-0.3566997133902008
-0.8098442718578681
-1.4614575908559004
-1.4239273983075413
0.7394746672841377
0.7636294454093429
0.6148918655001684
0.3224719306696937
-2.2302337807682178
-2.9208384683986344
2.143047809972373
-0.37798831163190155
1.5198672570520948
-0.07362173155130389
0.39566431294425597
-1.5786712191460397
-0.6994978232334119
1.2834892295912725
0.9390350723181629
-0.7803415982856426
-0.3566831967396076
-0.4642043589685554
-1.3605650724934268
0.8746953229607122
-2.107159748720325
0.4004854354290248
-0.9609473374310457
0.4222611034014718
-1.565292192910702
0.49735443006186003
-0.6389643805694614
0.1532937781946742
-0.1042574313315595
0.325190939978514
0.029408068646982338
-0.6759983006264104
0.6789773752519934
-1.1404530552767942
1.2619823077495391
-0.05113763508966962
1.0974670586555735
0.4820668469703919
0.3465734847792637
-0.7729346478635247
0.1349596573279927
0.12494384473291452
0.7581129510180554
0.9138812155333033
0.8992934773795852
0.3274562403229093
-0.5867543801514761
0.014473828454079955
0.5296724762826671
-0.9508103655322547
-0.06936336140439793
0.6939292667750548
-0.4040238234376805
-1.02256602343308
-0.282230984703678
-0.4335542166545423
-0.06338998732296973
-0.45703315972073816
-0.9591894126940388
0.4270381571516844
0.11660134428527708
-0.17450326947777228
0.21573234982478273
-0.07806594026504096
-0.00791712592963161
0.17083060400647884
0.2483038705605968
1.0583115751541514
-0.8818557120634044
-0.0765754160501549
-1.698478958597564
-2.655322275498429
-4.370432193935906
-1.3662452434302457
0.8479193741048517
-2.5356374850733308
0.2118193637742203
0.6814383970544635
0.7042503677092711
0.02710133100579887
1.1341324045400343
0.32192698922284085
0.2321583735184385
2.7647883532288198
1.6667855957085569
0.7084200968388584
0.8036704209987989
-2.872874842741388
1.6172037656985694
0.026038105241170086
-0.9144310193042395
-1.7442541516860612
-2.5846755102028744
1.991094140384411
1.7081354117048737
-1.6935275703548174
-0.39445784502058556
-1.3300712963323884
-1.6298681246216662
-1.0707027149801969
-1.5136525240446383
0.6155507974281569
1.7315827386062683
0.4601773770860741
0.4172605680703048
1.781098833889334
0.3584081086828935
-1.8664807320587034
2.5141390178021874
-0.7905945880667334
1.2040204818948557
-0.4996820165289816
-0.5633235958144511
2.458357054891339
2.0388188277369865
-1.9359775327319038
-1.8178488787073424
-2.017067641395394
-0.6753781259811554
-1.091392306830709
-2.4996844735911705
-0.03384035452259008
0.004892726669692959
-1.56203434462712
2.333790726438405
0.9959542277421205
1.3464072046136468
2.160546839683673
-1.5543897623240646
1.4618038325947373
-0.3832855909044153
-0.7253543207068395
-3.28604652684051
0.9446371884674593
0.3419988482392193
3.2049128960883286
-1.7681662367184146
-2.26999842155169
-1.5342477171131714
3.421298372708616
-1.2325020099824167
-1.3431322859642578
-1.4280047156609843
-0.5677886658133747
0.9172537834574557
-0.1846649338066163
0.23005173683405009
-1.6033084439908787
1.1057237034051808
-1.440734696030676
0.06236264947354748
1.1237087025948234
0.3080839991642758
-0.07991476879572888
2.121992611058737
0.04001361909506598
0.28284298974623584
2.0087134061475655
0.7181191858228397
1.4155098662228962
1.3005720472698574
-0.933760015380483
-0.3507699762770352
-0.2141668152493994
3.7951121407813493
1.5992262878397738
-2.9810825251379005
-1.0695534530148685
-0.06808707007228654
0.06737733749324419
-0.3907736628845396
-0.45822248833139045
-0.28413506596864324
0.3821095482369268
0.11887010551682252
-0.7097525669193168
-0.5989869978323693
0.15525318154972229
-0.9506137026009555
0.3726797284247575
0.019195440721692873
-0.18177650655873923
0.16091498021433495
-0.2684238111550332
0.371929130018652
-0.47360519839589355
0.15243242166641455
-0.2032070206142636
-0.439138091153703
-0.07296044263324619
0.20892783727101968
-0.18619255407921909
0.11864064126430035
0.14136690835893648
-0.17925500613384932
0.2449865249961893
0.16042533846112667
0.2657531726374304
-0.19244243205356001
-0.2450613590377301
0.730671222008738
0.26975584618284326
0.5392398370647098
-0.05243072463967847
-0.016511101305127687
-0.39362159049946
0.15631591117657534
-0.0750261182587798
0.5556461777726055
-0.3017160488670434
-0.3254295634401494
0.10250947492319487
-0.20675924925253877
-0.2823368977211695
0.4642126192031446
0.1312459719112731
0.8123796929151181
-0.2348066320698721
0.24645300395068945
-0.08135957325294167
-0.3820330694112523
0.318507594384094
0.021097862256982826
0.05547999325218243
-0.334821742337105
0.12783459330143884
-0.6682010262913148
-0.3918592517862133
-0.4990322495005807
-0.03155219851716423
0.4451596178645433
0.1955590259234359
0.32063858915618715
-0.033036540459243514
-0.17105967169789488
-0.20257671780354441
0.27504413014316587
-0.5164412960507526
-0.013569475521768456
-0.379798546593064
0.8160294113014153
0.723778452570243
-0.024923772347762493
-0.39885432776543245
0.046242782645241114
-0.49243971297634387
-0.23650898310517718
-0.3827903254113155
-0.08491144355691099
-0.23509388801556194
0.01819367855584945
0.29626603797555984
-0.22074027472946284
0.18455064967308257
-0.41288492975898594
0.2413033161696291
-0.14967450948683686
0.6725778166995577
-0.19373951752879984
0.0992999303579654
-0.13960479516697596
0.35810860514876247
-0.05859202971215851
-0.22931086514522303
0.1600055075677442
0.04359323047199288
0.044265110184219754
-1.467412017214333
0.42341313499725614
-0.5899708056308915
0.808350978120176
2.8624197633685253
-0.8511649945084184
-0.21415723070385076
0.20566287082271265
-0.9728558725853731
0.744554904098559
-0.06552404156005512
-1.0858480435101272
-1.4972075301407857
3.9884161657852646
0.7338644764554187
-1.7469188021550075
-3.211759230411087
2.820971994213255
1.6925567381117372
0.9957120462173646
-0.34512766202491557
-0.7969336073571245
0.770572536536953
0.26925534335595613
-1.1513268698434276
-0.39604128406739586
0.7036715899642455
-0.39734939979086714
-0.282734033863142
-0.34894189170699835
1.3983560101352521
-2.2302232800926274
-0.07957666163005896
-1.3670559897434282
-0.6647191537059423
-1.1873975757032569
-0.01734425828859623
-0.34190442797202647
1.4037945476797369
0.23153488230763092
-0.8034503167538573
-0.8577331626507432
-0.1188272234327351
-0.27655161600804823
0.6602884667923969
-1.3447674183529856
0.5970481346551608
0.3290041901334933
-4.295724479077325
-0.4360593220680023
0.6567432961963902
-0.32359035724018426
2.5320736155126617
-0.2304037472311897
4.2246392951969005
0.6277637558775687
0.27278047105912734
1.7935836440997257
1.594138979893656
-3.003831294231095
1.2531543331045925
-0.2540047647354275
0.06707281468372113
-2.6800430890165705
-2.5617348253940864
-0.06994955861074367
0.338526132251389
1.0589186384372093
-1.5560919875765882
1.3181862961819666
0.20186218288041619
1.669721228082621
1.6288502340535123
0.1868988356770877
2.1330590247991714
1.4429018344501163
1.753713748924562
-0.6859600270927066
-0.2313910598372289
-0.9502813130491577
0.5584522101947802
0.06399384720353511
-1.9630340780226165
0.2751044732420888
2.447830387352782
0.4128789207843233
-1.1133842151947733
1.0391078526299489
1.1342227444406654
0.7864306727376138
1.4586947728667339
0.4343628683835653
-0.4406033620805048
-1.363386422261731
2.0876205800552476
0.6995642585389319
-0.4796113973175705
0.6745162731529326
2.1892613197069872
-1.5025563641927862
-1.9084649595612784
-0.5730612116093596
0.3296146824146902
-0.5396982395718871
1.6132597571942628
1.0873973902469225
0.7342928689429041
0.3344597340284149
1.8344129575031447
-0.5007506960165802
0.21861118970559704
0.3299699037523385
0.5068052977927225
1.0720008688624487
2.130303981371652
0.5783905367516035
-0.2865274400310624
-0.15460307780843238
-0.44854346510175513
1.0729161802904823
-0.8309484935455546
-1.4493518043037419
-1.3948424685860181
0.3350500895648944
0.6213575741000754
0.0312265213396734
0.02641836689525264
1.3335713791952764
-1.2341199936016065
0.3213258585530538
1.1171600398543122
0.543053870238464
0.12778035342706967
0.028923538374620496
0.9266884662431372
-0.7854781635804411
0.03464349191188347
0.4630895589419403
0.3161706089712436
-0.03120865942218606
0.033059351959810114
-0.6927274260344799
1.2010117563742906
1.609552139743767
0.22167573399226045
-0.5077709406369018
0.9403216653415688
-1.2111691650328795
0.862881692916022
-2.5565332964717715
-0.7624308008946353
-2.2309322183188782
2.193100898826865
1.8437302544293084
-0.6901774090100481
-1.8140597663859872
-0.42100934635691095
1.2424521381075122
1.6238783193222868
2.748882470646656
-0.45715686565816605
0.2071509662452168
1.3149691245938577
1.085036349395882
-0.5104853292949135
1.3697846586745093
0.5139099546038322
1.4627244251026028
1.6700254717861227
1.1322209783480826
2.8334096667588407
1.0173050926697738
-1.3363049227535975
0.23821022372303627
1.7106191976394092
-0.04634969978274597
-0.4494368855901422
-2.3380256492636464
0.8323385888214869
1.852589683827736
-0.4386350721562978
-0.4779621983121783
0.17682067631350698
-2.2979395482445355
2.2860482010653262
-1.0101628697869234
-2.6485240526232756
1.2478310991463877
1.5295713407463678
-1.646372207213783
1.889123364296334
0.3995286019728671
-0.32883207010328175
2.291117003157157
-0.47134314389900744
1.8856653398267758
1.392494580520534
0.22158498381236108
2.1218530583736355
-4.031863853482088
-0.019247402649498372
-0.66670099434704
0.6506818335662575
-2.840698750637867
-1.5050098802416023
-1.115997425676644
1.9111567710070378
0.2571259362795266
-1.3461237313138268
-2.683474761897278
-0.041870467772908225
0.8654179329880659
0.7377049126320036
-0.25371977946492014
0.6354422449596003
0.36937217633597497
0.11341708473582192
-0.18164217479120848
-0.49982778190115557
-1.3871096618961305
-0.3577618592783365
-1.5461588136620814
2.2151650272497214
1.7869172115480862
0.23978044340193816
1.752478249427297
-1.485722453856092
-0.3417423680990384
0.974636624767687
-1.496550704310046
-0.8045232842962864
-1.2492606042662107
-0.44579144853239216
-1.935609371935245
-1.1577474751846384
-0.3112263348262061
0.4568447528026513
-0.5425776259620616
3.3612859960552175
-0.5759336946274766
0.3310206206620661
0.08882430272680177
0.3449989195637098
0.7494521459077287
-0.6306397062101372
-0.17202440980076875
-0.6878981660025796
-1.2682073243985512
-0.16133697017298235
-0.7895522880307342
0.1282161025632037
-0.9485076758313219
0.4768964382094846
0.6691662837792515
0.9880259318038619
-0.27545584304828447
0.05137984146099441
0.04516188092877412
-0.2565048949017459
0.5369884905567396
-2.678913728867855
0.12311764460250348
0.7378952536249913
0.8665251188476677
-1.8466794615150695
0.28008836209651256
1.105097176298786
-0.6134842028380272
-0.2130131887384951
-0.8352077435344933
-0.07902519249160515
0.5332123987060614
-0.2469581587662937
1.4271732017426026
0.7112732132948615
-0.1584204762441349
-0.5127343118731577
0.7681201971569267
-2.9915937763005873
-3.3971874602374634
1.1320662683240947
0.6418138827741162
0.587245932310472
1.205699972822352
-1.3991537195436545
0.6886493323387192
0.6086714515367551
-0.24536709844130597
-0.38904837827458016
0.7043117267205524
0.13635432756466745
1.1596347845904693
-0.08997546338518148
-1.4487654581235496
-0.6356046391551502
-0.5141219948006145
0.12285479152160386
-2.921101688284772
2.251899024249408
-0.29450139367578954
-1.390295436795402
-0.6309514685460585
1.2862492646744037
0.24616685014694148
2.6307928080647427
1.2939409163621156
-0.2464182831702891
0.006830462783258905
-1.7168271325856108
-0.655070992977678
0.09911627426022471
-0.4048090184520197
-0.6391942848985792
1.0765665764865318
0.3800184520964573
-1.1238392912549913
-0.715273976070887
-1.4237928190221687
0.4045639194765233
1.5942967661678316
0.8199886622116634
-0.4726080066454156
-0.3799687289922794
0.6001819796692359
-0.8319673108218797
0.7170712966015867
0.6102253415332178
0.13530870529496156
-0.3952608232035165
-0.8064597626890703
0.4499984811923402
0.6351217741621215
0.18350951129864643
-0.4042449120006827
-0.07096827681622025
0.30895647316387
0.5124116461041106
0.5933274529967998
-0.49823364177430873
-0.04854542203913708
0.37693911076876213
-0.4896819468194508
-0.4215717124871906
-1.2062243759727516
0.6120809733836254
-0.43664664346345766
-0.38546858006940077
0.002594757270006451
-1.042856816005032
0.7419709085757134
-0.8490660717748626
-1.1264257008223186
0.2928565297790191
-0.019099645260792494
-0.22257866514293273
-1.7543774872691722
-1.470536284665693
1.8015166410739178
-0.26907235706485655
0.7372580369907743
-0.48712713485756604
1.5044935150936312
-1.8927552705256165
-0.4810815770716745
3.0282159330942995
-2.62478419198115
-2.530055362929743
2.1321828988353286
1.4264842488733398
1.2771604778063268
-3.055767833386588
-0.33554547077208924
0.028082511179009444
0.5271077698534928
-0.497794101284452
0.402761686241802
0.0761955547923443
-0.8480505936765359
-0.7373527080037038
-0.40642051697720116
1.9176851575147411
0.7343664515345079
-1.291596616728104
0.8718846679705488
0.04118083464886632
-1.6587780066967641
1.4117487312813983
-0.1562590949836725
0.3577656586086902
-2.9414392285098163
0.9138728177428079
-1.040125632594687
1.2192066884160448
-1.93883994523744
-0.1140397177291825
1.0713339152758705
0.4005919611071525
-0.4593182454567298
0.8769309680830627
-0.978385745158251
1.1173359504008553
2.1673108588633823
-1.3096587651764031
-1.1658076873102408
-0.13138978678942048
-0.3568165988773592
-0.7846511638101326
0.17260961953984708
0.8840905918419836
-0.6274543783673179
0.0933102270754188
-1.255202386811759
2.996383189864996
-0.637915887071885
-0.8928697427078016
-0.8828061931754879
0.7824079228122552
0.5470889354741645
-1.7477064748595825
0.9979514647713423
-3.6873936097391122
0.5349135893708591
-0.163477471886631
-0.7815470450965091
-2.845754825583106
-0.5969734905704883
0.16836472671817862
-0.04122495437687571
-1.7473008107743158
1.5345192774141627
0.7445299816473684
-0.8726348087725863
0.37509782690145527
-0.03546645592073634
0.09682065588023199
0.35337737752441845
0.7955969052467193
-0.10692271886045827
-1.396787261418354
1.6630536319210574
-2.0735328408104956
-1.4504910471621446
0.874362368883021
-0.5749080397061476
0.11262808974612551
0.7838878478606334
1.2273565271598426
0.833417519222098
0.9343839472922375
-0.7092975653817025
-0.7544715102028905
0.7551541127761657
0.4858625162847912
0.45384019889701366
-0.43472677415802163
-2.940057935532419
-0.34046725276538703
-0.5740654372000361
0.3415934423992887
1.6831520931997823
0.7154285775532304
-1.5110946333092052
1.3446003493534189
-1.0968220159234943
-2.107110777405343
2.1070729518737386
-2.3176192703105043
1.8545152419038562
-0.21256296415678677
-0.4431254101142477
0.8518675747785249
-0.6947163617972918
1.628128631591715
2.3840648679814582
0.23383783247284953
0.29135776848097467
0.6394488391417755
-1.2309293224923694
1.9886044685629796
-2.6231390524465823
1.2025795566475073
-0.9985601614917696
1.7103208311769194
-0.39053012228033696
-1.1521639264724517
-3.0177322511053393
0.8652098432776831
-0.7983693168303471
1.7741834803597945
-0.8235935534652217
-0.46075867847940827
0.0831892213625373
-0.36418836411565875
1.041116950067755
-1.0027011362908158
0.0227977024381458
-0.6587092151624244
-0.6651808107965703
-0.31838364973065236
0.036055088949824156
0.053248476113258544
0.10931954225391267
-0.21110602924400698
0.4019737040679244
0.6341805128951502
0.07513059625168875
0.19481398022872204
0.12932216683870615
0.5894267332887649
0.14907874549712308
-0.035153175770891165
-0.22327932137401885
0.3437286193317724
0.7823739122376837
0.37680413684444575
-0.9637804115781327
-0.11504296687409149
-0.027547820744326174
-0.09668972958205471
0.1588686140587587
0.12494068349704682
-0.2839661704646643
0.05608915497745621
-0.005062024171194154
0.11244988265785785
-0.4106781289507796
-1.506385175111194
-1.026102259590647
0.2674756485255855
0.5509408446662167
-0.8947298787666765
0.41479077868448155
0.6708585512328172
1.3279373120195375
0.6758200247887162
-2.8984308912393457
1.1758830142630894
0.8521021314535877
-0.5728279138322359
0.6582953446272518
-0.487174075518286
-0.36096152121929403
-0.183508398378836
-1.0080986817458288
0.940706369334345
-0.6219644562142982
-1.0117885610588686
0.04595465993231599
1.7053380462304761
-0.33117629287569755
-0.6272408776648889
-0.9535758300699266
-0.3170116861008499
0.9894547147596242
0.17756764359245888
1.0997574574862725
-1.0844479682133055
-1.2602244510965646
-0.03604415398509158
-0.9009897498240192
0.8790567934871808
-0.20060665780843728
-1.4096086145015947
-3.0977997493776837
0.5038718437354364
1.2327759783024912
0.787847403139086
-0.4247150444195409
0.8275762028080408
0.46332756262371777
-0.20553249360419235
0.11801024813688403
-0.057939679918318956
1.8330578032955116
-0.8769770850069556
1.0864641348889519
-0.723720249339979
1.0839342611020726
2.1751340954363254
-0.5305520383603898
0.624488257781182
-0.29252879597819376
1.8846434079097203
-0.912587194342722
-0.9576488864603824
-0.7731719333323309
0.43383442057522303
-1.0245964810397903
-2.025775811763417
-2.10572680911279
0.07933039815720094
-1.6736936790865422
0.711766555788457
-0.046201539893629406
1.077773885022725
-0.814837049369658
-0.8093527418310444
-0.8667702050033597
-0.3346322069899103
-1.5889738156523239
1.814212990638537
-0.30523155028582466
1.2479418247574638
0.5519234923833197
-0.161275752823345
1.07945799026937
-1.1489802794435653
0.3042759163662491
0.8120765651288001
-1.060998549533671
0.759413830695371
0.10620903234360839
0.902016915333142
-1.1054893735303566
-1.7995963714875614
-1.3287282319416753
0.045339101033312665
0.04155571067250152
-0.25806406047235897
-1.6208850821604008
-0.5492466319922612
0.07309752994760468
2.828262126972504
-0.19611858834605161
-0.21919402391258513
-0.35583301639403253
-0.011520937728831565
-0.9529992826502275
-0.4659546034425083
0.9456234995580984
2.117574553240049
-1.9412197436014769
-2.1902405190357443
0.19101687813871673
-2.074211901767329
0.23141707804245984
0.8808547682333286
-0.5342898338490094
0.2837438532137524
-0.1082907638796171
-0.30901484066044305
0.49958894291250355
-0.6366902566718211
1.3486320892863097
-0.801149199694351
-1.4737938702622067
-0.7046427410259264
1.941551210654238
-2.0279104812669524
-0.9481048259610055
-0.5499189965001063
0.2471029387321168
-0.4046679343049508
-0.3696007719717299
-0.09980640077227279
-0.5807850041186241
-0.8819671017084437
0.38957714107346786
-1.6574937976359279
0.1610447862520851
-0.31649888544784566
-0.5287129645196366
0.3318482620189192
-0.060382735693152
0.3351772229849359
-1.5332378690258148
0.07368476624473774
-0.2478881375762946
0.32899384224527206
-1.1611479148686228
-0.39617450287260114
-4.126002438180974
2.3496032108519227
1.8334177800873714
-1.253858350194272
0.5160765579025268
0.4934999428557888
-1.6154741084021556
1.9561469102673403
-0.12449263215649237
0.3484925729668393
-0.9230862524568335
-0.6082725667592382
1.6101555186770287
-1.7875585572833643
-1.751205639341892
-0.026428109858343197
1.0828721336370015
-1.0959666337189393
-0.7164785920586626
1.1955776929003468
-1.1459486378874144
1.1293904176163507
-0.43406706162339664
1.8852069542139043
1.0073044644627698
0.3627940825782056
0.3029705398081793
0.3676285966142996
2.302211485152133
-0.7996667514468647
-0.15396198448777543
0.07241438839149668
1.5535505226264825
1.77897899317715
-0.971418175730449
-0.13121559136505195
-1.0508169119109292
0.23001523383175165
0.2704640342531411
0.06942548738429843
1.4077638884782355
-1.9476599348748713
0.4745254565766887
1.2978512174128067
-0.9965700799470807
-0.024880668610636373
-0.07730385675533862
-0.17466993663747668
0.8509660018027827
-1.369678855864558
-0.9796042999135993
1.2743183564290925
0.054488049399897015
-1.9726524429111694
-0.12565275664949271
1.8424590399251943
-2.9378458348437895
-2.550870892358745
-1.6177133000010706
0.8095982092105358
-0.854448708885872
1.2454858011232963
-0.2195221297977732
0.7794194107449537
0.5752646944114679
-0.48047777750621135
-1.0266210162236689
-0.69328462418834
0.2104776097824889
-0.3394483506765987
-0.9675981222294316
0.4469888827180905
0.3940180401293355
-0.6152455046853881
0.016902568285590353
-0.8505863387002272
0.7903639270966855
-0.12336664744948589
0.5403215574241472
0.1910546294273848
0.7127283884079005
-0.8224187436380741
-2.5893809151089577
-0.7714500331420596
0.44172454225049906
-2.1355173214519776
0.8883713076214336
1.149757717925153
-2.5537421276654264
0.24429536898015328
-1.8224731679717976
1.8854031633700632
-3.3144225051320984
-0.9549139785824595
1.4521343212396167
2.6597668664067573
-0.5886114476273455
0.2775440145247725
1.0179665021456177
-2.4772406060254593
2.821861267157126
0.5490039672708291
-2.4471587589281314
-1.043028610698299
1.7085568100729236
-0.7873406267640596
0.5765184916008623
1.1360300159215808
0.761063676233866
1.5269461307154368
-0.40854711652957637
-0.8790400929916605
-0.7287683828756845
1.5457349332116566
1.072981221800711
1.722668236764404
0.7470296898567732
-0.6351045604863607
0.22240220710560898
-1.6045861817824822
-1.1778082941231531
-0.115525574516916
2.5070070896193584
-0.14021708530201865
1.2283189938241867
-0.6856927310557244
-0.9076668049845056
-0.47942374195961784
0.8658116967932982
0.4941979142110306
-0.2773247936965985
2.5258732824586665
0.9866181321744061
1.1151880175893476
-1.9232116364447887
-1.2614236686017963
-1.7119191899588035
0.0947251725455896
0.10105494371676345
-1.1409310555223908
-0.756568205381031
-0.6996586053299176
-0.025115271360330562
0.14786011322134152
-1.7681473419033054
-1.1294635402795088
-0.3820261138687776
0.5821839416510991
-2.1492638536987574
0.6232587229752068
1.0482682365031653
1.9616638593335043
-0.30568019435837285
-0.49912584013998745
1.307102877038853
-0.9919693267510221
-0.8149823213815333
1.3761295848336033
0.22693975229373514
-0.23380680591847763
1.7157099688421424
0.6674251019838748
0.6100539036170153
-0.5071756619578643
-0.8477826447177738
0.581695039777503
0.7311591285752486
0.6457215531964842
-0.20047693204229408
0.5069623559664858
0.9939481184936306
0.32884817657582427
-0.8955734709164906
-1.2861715203285897
-0.10004331427102936
-2.6354325587283207
1.0663222318012497
-0.019100267875636928
1.6375999270653883
-1.2800178417642203
-0.023864227231951703
-1.2718729314447883
2.8453898326355547
0.8785363476057753
-0.6818299588521229
0.6726612815697511
-0.42041978397448004
0.20263833065081968
0.9508063969767264
-1.0833533719088106
1.709134153629411
-1.1931625131622319
-1.881996409231308
2.361289753551972
0.42236975668085225
0.640875881748628
-0.39559046826804434
0.16788792931790403
0.2163645659948894
1.5080119024359124
-0.15669094014064694
0.39145852628518163
1.5124481558630416
-0.0024562742214776397
0.7474643224253542
0.23342160367932346
1.1579812413207504
-0.742602118612512
-1.0110022764633988
-0.7907708528241715
1.7300742395109152
-0.4160161621449195
-1.9542847135789898
-1.5622933425760326
-0.26067766327309505
-1.9629248469476244
0.8143201159591029
1.3053712464543463
-0.3209234857783976
-0.9378414837108255
1.1366631405551064
-0.04154237893841378
-0.9199190562021632
-1.0128743414139496
-2.592360745544963
-0.8030160098655462
-0.8826240555707844
-1.0433122257641707
-1.7963349343399826
-1.0924805772613235
-0.9889269427214531
1.5507318357077378
2.94167500071396
-0.8820021661937502
0.7046940738510648
0.5273555499676417
0.008440146082278003
3.2737773925280482
0.8938951822869395
0.7233053574223596
-0.1254684779134686
0.36774084620088593
-2.0593141513888953
0.9826005771775328
-0.13228971386964158
0.2988785805299
0.7085072480481
-0.9288555514312994
0.6995759071247506
0.5256048700106025
0.35613609222079246
0.10372373983672574
-0.15509894612746236
1.6016945346573324
-0.20248333035566468
-2.1663516996828127
0.349071282869366
1.156989040420856
-2.557265817161463
-1.4816867530334656
-0.14509482377486282
-1.0722135247690432
0.15837830243214776
-0.1534884254410003
-1.8377681540958124
0.539918873268639
-1.337971573301492
-0.676307724115346
-0.25824386442491504
1.1960690558081528
0.09351142034447768
-0.1436133568662068
-2.183839619282015
2.222587021926629
-2.849584194491771
-0.01482949690536775
-1.0022351197770414
-1.2942125941022586
-0.1891966466852146
0.13774833314269666
3.0342752984827253
-0.2565146575618376
-1.0402461762900195
-0.9879193024422396
-0.7306482511045228
0.036206245541451805
0.20931702496042723
0.5552577863712911
1.0387229937877183
1.1741370111126066
-0.6981603803757204
1.803061104851286
0.6940163783054861
-1.1070642521708267
0.9943322146651913
1.0322049598549359
-1.1102508440021734
1.1954542090355411
-0.6032982518484886
-0.2277836958918577
-0.6286722875470147
-1.2366816276671477
-1.1277105817410058
1.8964816232469062
-2.415415891649639
0.10939061247462971
-1.2315215763497018
0.18830335334160797
-1.0047281832915191
0.2923465532384393
-1.4040833016482555
-0.5290660324720786
-0.7573162483478455
-1.1536767277144755
-0.05548805737909344
-1.3745734871403343
2.606292472527517
0.745033790171395
-1.273449630179067
-0.1373310716324712
-0.06799544755156449
1.0756927796856284
0.17634131253396312
0.11867164907393721
-0.9198689635875665
-1.2826202567051377
-1.4074346104100752
0.34032509361202357
1.3248161018996294
-0.3987116695364048
0.1464922734312964
-0.9146778906047958
0.05796771554190994
0.955959616004535
-0.6272830982304474
2.568920597253782
1.5854520939948191
-0.6877764786412922
0.5924272960141421
0.4260205596299848
-1.5083066765680817
-0.1889030150924596
0.06667906687222197
-0.2119270034194746
-0.5272337576352996
-0.06492478818551639
-0.8145688632676059
0.49237054310208656
-0.8849060050563385
0.015820145817206525
0.2886478450718917
0.0979328092041017
0.2551384615011793
0.008916820646857802
0.16695830822830887
0.14667411598345328
0.02260649010188347
0.1845172414639132
-0.2065443642762858
0.40187372053063425
0.5783427538456712
0.31156393717126163
0.4928876857499504
-0.15095797249271414
0.17552647846983413
-0.1511087895328927
0.4306315731763632
0.25073170095573044
0.3108192904725597
-0.006865160465812796
-0.12565837337375252
-0.26884365549933836
-0.0672322713110241
-0.07297072136793759
-0.12225490426631405
0.22998907477627942
0.06930425776156698
-0.044882052261784204
0.06617048755003735
-1.7859390171098892
-0.32491487250119594
1.2650672056313277
-0.09940385960098723
-1.7338160793038748
-0.8387738364044033
0.7744249662788845
0.7715716013716041
-1.395254922356455
-0.442615969254533
-0.22731707502808837
1.580212478434921
-1.6409046863713388
-1.022185147125865
0.271841076691175
-0.05332229445208247
1.431979802505646
-0.8709412434962389
-0.9710835309048583
2.380679395792887
0.9313891113654221
2.8487602898280837
-2.1583182878750677
-1.2475734283357973
4.50921276890599
-0.23129960917692158
0.237873160304112
0.2599813506526295
1.4153631444624688
2.0530235442983513
0.23589230740380215
0.06573066588615135
0.07912454835412777
-1.680307506818543
2.871697301083094
1.6738001535885774
1.1224415219584754
-0.22774860401756442
1.5336044467034848
-0.7509544228852651
0.8060167514627735
0.3437578170715974
-0.22067729087582988
-0.036752631112479846
0.5336028418388962
-0.5840493789196044
0.6547350821350618
0.43445389756401986
-1.0205453984821635
0.758634385598588
-0.6588205883136686
0.3630841407399587
0.8331871546576723
0.07891496353879257
0.23589884030678482
0.033270402638553805
0.8729877895629456
-0.206168361121294
-0.9959065607536709
1.3475288082851198
0.21493606354769346
0.1400322140289708
-0.035855310751864156
-0.3444715802634532
0.09374164195522526
0.0016361242310527014
0.7982147499837189
1.8056284494358845
0.22642077649398382
0.09720931323772423
0.8091114037029185
-2.189014002682778
-0.08976090215051576
2.0642257918137723
-0.3372761198421443
-0.27855999839092555
0.8178528235637265
-2.0160351831657763
0.9155126879359464
0.1454233485922242
-0.06800840947266652
-0.7527715604128854
1.8470512978060638
-1.309326263775579
-1.9136992897514986
-0.21356891899483443
-0.009336832529019078
-0.18529170915402352
-1.805109973485622
-0.7651012157538746
1.6503666566861623
-0.5529368519037889
-0.8875808314053558
-2.6518983672190504
1.1454787127590558
1.0936214121534797
1.123463490399326
-0.6886035679268709
0.4917719388008907
0.20679527685998753
-0.6117396559278474
-0.863673723519095
-0.5337150531502152
0.5823028800188877
1.5443715235467306
0.973542044912364
1.226116916970165
0.6222752836706188
-0.24563210961326082
-0.4619663373420197
0.8705097155858216
2.3598383186716885
-0.20119046355149442
-1.4364951419400969
-0.9392536653638204
-0.8807606258969026
0.26673090583792664
-1.6158859394864502
2.3436898530616914
-0.028542156666330296
-1.0542559723285236
-1.0570563840475846
0.18327619757982286
-1.1156480025657138
-1.3129240191328702
0.08465403160552348
0.015890867040664735
0.10383059390959218
-0.6607875979363231
-0.2484430494469501
0.21069221886280404
-0.04284854539405726
0.5901425309806425
0.7449695479561418
-0.5233829884754283
-1.2720231608638601
0.16536368686002362
-0.05475274511874301
-0.7887927831041124
-0.8858457022075567
-0.4835292500169775
-0.22686453866981668
0.3280970447203415
-1.7255364461673721
1.608156159906661
0.4264154727803469
-0.19518887137414023
-0.006395418111050999
1.0011758344933803
-0.6581601964053734
-0.37007633177873317
2.4560777378933345
-2.6879002741131157
0.26200663477825015
-1.352481650300523
0.1103132424501451
0.7802682276648066
-0.5571899152564155
1.5735103884940815
-0.739849685991016
0.32977336309993477
-1.0832501841152244
1.1344773581623169
1.176708566014005
-3.61962780150717
1.301428725176727
0.7406963390636919
-0.18942554560327468
-0.14917127946402087
0.7988315096819422
0.9845981762211828
-0.5547613326129479
-0.3262220218418726
2.6094126890957603
-1.1713116157565144
0.7313526462320141
0.06630333976477695
-0.05429375977675036
1.3126148103567257
1.0412949105884002
0.4646620929487078
1.1670986128200327
-1.8983762809070162
0.26298159059275733
-0.06887088090514563
-0.1460414062847669
-2.2637090629545957
1.53821841694637
1.8746555216705074
0.36064534487527533
-1.6347023937216938
-0.18051524741124203
-0.2584014367633734
0.665190157744734
-1.6252437587461337
0.8818264532674412
1.7361334619413824
-0.6737292041374795
0.5181240332086825
-0.5493187997401998
-1.6615144651619909
0.23798230449995542
-1.2710208015164883
-3.252470591619097
0.3399931058028286
1.9237543833132467
0.08112663755702247
-0.890563685443963
-1.4515073189211058
1.3462162757045675
0.5538557953806881
-1.342662699961843
2.976528590192407
0.22789692209979218
2.266345804972003
-1.6556857016381232
-0.8363871521744062
0.4973817072435827
-2.1524447252036576
1.7910026654495184
-0.06501105977810515
-1.8985088553926266
1.1013328915148846
-0.03798474311240515
3.157787548132599
-1.794827115664976
-1.4565817298340868
-3.3233148365151366
1.1452163311098067
-0.24581784314083607
-1.4603971864512657
1.0245579778740768
1.0463111848108655
-0.5393814212243357
3.5436572093645724
-2.6018764641755077
-0.7823316743355141
1.7880303237129624
-0.31067413304483965
-1.094017131527409
-2.363412339838092
0.05680412969592328
-0.33062829502338814
1.593983124339703
-0.8997080607779625
-1.8215632210869088
-0.7391097577859959
-0.07720474027881614
0.538759277893738
0.16011864534400086
-0.25015138325327296
1.4169572281189533
-0.3363868720838173
1.3410473594571524
-1.8810129651615455
-0.3403434192710737
0.46365565051710106
-1.1367590095657205
-0.9536044972881037
-0.6257518355464434
-1.8613319889257665
-1.124392057194474
1.3818486985097227
0.8651895093644884
-2.4068327046879774
-1.8183847599028498
0.5254106854163931
-0.7841848730755506
-0.19111005267761805
-2.7367919748843823
0.4052715528551076
1.147919992765089
-0.3409207675534497
3.699857761760475
-0.1840718965829356
0.005679536215767741
-2.0379292883115703
1.0055448497440147
-0.17008948538826213
1.8811414201062757
0.7375508359105067
1.4556910342726146
-0.08132332941273157
0.006225266332569597
0.6243271756852656
1.5468139937759569
-0.5080142349654291
-0.9023985724414364
1.8516296392323859
-0.28524410270424644
-0.5256783390205002
-0.8909572826084803
0.47502979412712604
0.004360044545083616
0.29094887641168654
-1.7245453709383634
0.33616836448646803
1.1483375553042126
0.7014387028489028
0.4338582850890075
1.9898758981483977
0.9228513030018567
-0.16157151157212477
-0.06517200841197747
0.6288792257393213
-0.8603373938968036
2.0127271867491645
-2.1863618417243442
2.287901533800668
-0.36672655570231816
-1.2670671235633444
0.6483412971972631
0.3287134247050571
-0.9929349626568591
-3.642806208921961
-0.21322974618823454
0.7671606773658081
-0.07141039742987967
0.4402454113723
-0.0061958662607348326
0.3750621232470574
0.5641154188129246
-0.6812558504865437
-0.42697267282117357
0.29736236203671795
-0.4408889649454428
0.3101374447184109
-0.052755832279699745
0.9491544998665884
-0.7969798257924887
0.9561286469789582
0.6679010944068374
-0.29721991335247466
-0.882633583638506
1.7382303869234688
0.6326820832301953
